766 100
día 4.6555007e-05 -0.001786114 -0.00068017404 0.0023399438 0.004385589 0.0013763093 0.0039633336 -0.0041816933 -0.0028314076 0.000965558 -0.003856753 0.0021146827 0.0020719734 0.003815459 0.0019272916 -0.0013840221 -0.00026541905 0.00037518656 -0.0020960597 -0.0010442804 -0.0015093329 -0.0005942177 0.004865476 0.004190346 -0.0037339476 -0.003133248 -0.0009880873 -0.0035798717 0.003831625 0.0045427675 0.004353515 0.0005639971 0.004708765 -0.002190183 0.0031781076 0.0021877852 0.0031460375 -0.00058529107 -0.004390008 0.0014221724 0.0036894984 -0.0033877424 0.003066186 -0.0038480712 0.0019213032 -0.0015945282 -0.0026607083 -0.0023558275 -0.0020484843 0.0038370506 0.0042801355 0.0048430623 -0.0036258805 -0.004700045 -0.0037347258 -0.0034035211 -0.004133853 -0.0033600146 0.0045846635 -0.002438758 -0.0046230746 0.00068251777 0.0037447219 0.0008433951 0.0006387252 0.0033822362 -0.0018860338 -0.003851348 0.0035131657 0.0029632794 -0.0019397282 0.0026468455 -0.003345892 -0.0042519276 0.0026250104 -0.0013175427 0.0027674362 0.0038725694 0.003967909 0.0009753337 0.00031392326 0.00069035275 0.0021146971 -0.001274292 0.001586079 0.0038473045 -0.00067705865 -0.0007685625 0.00019342001 -0.0034467136 0.004213073 -0.004612547 -0.0010042664 0.0024041045 -0.00017766474 0.0016580103 -0.004631232 -0.0039415183 -0.004800128 -0.0015753313
especial 0.004513395 -0.0022544959 -0.0006615397 0.003806919 -0.000784689 0.0034321893 0.003190333 -0.004166333 0.0028060058 0.0030677014 0.0010038929 -0.004274717 0.0043507037 0.00035037767 -0.0023053573 0.004466412 0.0014017646 -0.00055681716 0.0005726351 0.004661008 -0.0026612852 -0.00074515695 0.00078850467 -0.0012226738 0.0022122164 0.0043466203 0.001487922 -0.004613978 -0.002859014 0.0015463524 0.003333467 -0.0024764421 -0.0011530991 -0.0045417747 -0.0033745028 -0.0014410149 -0.0018293059 0.004136917 -0.00072776777 0.00025956234 0.0034941616 -0.002289787 -0.0036882872 0.0037782046 0.0020177532 -0.0031381655 0.0010420613 -0.002762424 0.0032876914 -0.0026589422 0.0033748834 0.0010386149 0.0036237522 -0.0043706917 -0.003131468 0.0034046546 0.0045776186 0.0031080218 0.0019225988 0.0036775575 -0.00047821293 -0.0010208117 0.0043601594 0.00024183055 0.00019121893 -0.0015955009 -0.00074927113 0.0001255152 -0.0015323728 0.0010321172 -0.0016583012 0.004171725 -0.0031612038 -0.004649541 -0.0014398354 -0.0045815078 -0.00497333 -8.718553e-05 -0.0011615294 0.0022282286 -0.0008202168 0.0016299493 0.00076829025 -0.002532312 -0.00048256142 -0.0004366846 -0.0012745045 -0.0018406458 0.00028628664 0.0017830228 0.0020183877 0.0011996162 0.0020634544 0.004328752 -0.0027708465 7.741993e-05 0.0038468973 -0.004555773 -0.00060644053 -0.0017854252
miguel 0.00054428075 0.003425485 0.0033408285 0.0010727268 -0.0021856672 0.0009113384 -0.00467613 7.830845e-05 -0.0049259523 -0.0046406486 -0.00434652 -0.0023345219 0.0009785119 0.003963427 -0.002598319 0.001470183 0.004071407 0.0045489674 -0.0006578147 -0.00016927108 -0.0045174803 0.0016806454 -1.9143561e-05 0.0017430778 -0.0010000359 -0.00131355 0.001207612 -0.00019454038 -0.0016270106 -8.100674e-05 -0.0024502764 0.002285545 -0.003686316 0.004982131 0.00088766974 0.001207565 0.004646219 -0.003923867 0.0011505719 0.0012468452 -0.0039363704 0.0028790236 0.004448483 0.0011340743 0.0005802386 0.0020878965 0.0021241435 0.0031798505 0.0038176817 0.0028332332 0.0047761253 0.0045968597 0.0034573632 -0.0045015193 0.0046639116 0.0013948302 0.0013845526 0.00020199636 -0.0028244832 -0.00058818975 0.0038472274 0.004728543 0.0035514238 0.004738579 0.0015078243 0.0018632595 0.0009324623 -0.002054866 0.00081462675 0.0031195376 -0.0010282437 -0.0007658547 0.0011870062 -0.0010685753 0.003480203 0.0018609891 -0.00042886756 0.0019199821 -0.004509666 0.0010175741 -0.0030928494 -0.0015251373 0.00016125552 0.001331073 -0.002962671 0.0020756957 -0.0012534459 0.0034508347 -0.0017516306 0.0013841091 0.00097478926 -0.0014191775 -0.0009868158 -0.0024530757 -0.004763706 0.0038131631 0.0007022137 -0.00044222976 0.0043442496 0.001940035
historia 0.001524339 0.0040761083 -0.0043284264 0.00070188567 -0.0033453903 0.0016843785 0.0009975203 -0.0035506946 -0.0046636676 0.0043575773 0.0030823604 -0.0011654169 -0.0035923203 0.0014589465 0.0037090431 -2.5407967e-06 -0.0004981009 -0.0038150349 -0.0047668964 0.003333507 0.0045602047 -0.0031780961 -0.0041532414 -0.0035551856 -0.0049016587 0.0026632173 0.0017484274 -0.0013052276 -0.0031100248 0.0020435064 0.0032021091 -0.0045885574 -0.0013991107 -0.0046270224 0.0021893 0.00029125944 -0.0026958839 0.00035669992 0.0012722407 0.0038066762 0.00013992174 -0.0042074225 0.003935483 0.0031728626 0.0038964795 -0.0017209988 0.00071816915 -0.0040581897 0.004131328 0.0007845615 -0.0027925153 0.0044636726 0.0004056216 0.0038720048 0.0033598465 0.0040532057 -0.0031316266 0.0038975938 0.00022369069 -0.0020007982 -0.0014733307 -0.004495815 -0.0011466603 -0.0041112592 -0.0049482523 -0.0014820084 0.0046793586 0.004930104 -0.00020762571 0.0013192999 0.0019244894 0.0016166234 0.0032750745 -0.0012543821 0.0038899889 0.0030701945 -0.00053465966 0.00039256754 0.002494178 0.004310454 -0.002734075 0.0018850145 0.0046926755 0.0028651692 0.0030116187 -0.0020062518 -1.627609e-05 -0.0028569303 -0.004845057 -0.0014110532 0.0017406641 0.002304602 0.0028920765 0.0017489394 -0.00016781421 0.0011838111 -0.0012301591 -0.0021269189 -0.00028710213 -7.5715776e-05
cómo 0.00038858925 -0.002024204 -0.0038375652 0.0046136784 -0.0025632589 0.0036232425 0.0011826283 -0.0022437337 0.0012156487 0.0017800669 -0.0030090061 0.0041391486 0.0006409572 0.0006888031 0.0022557755 -0.0018206625 0.0011969706 -0.0014823561 -0.0017759481 -0.0018835093 -0.00058975205 0.0018494658 -0.0044453735 0.0033665644 0.004082782 0.001349965 -0.001894359 0.0006740003 0.003962023 -0.0018347896 -0.0016863375 -0.0028141956 -0.002265167 0.0021416293 -0.0035337738 -0.0041214693 0.0037555706 0.0038344709 -0.004417477 -0.0013667443 -0.0038481082 0.0016932879 -0.0037405994 0.0007528691 0.0017282933 0.0018869899 -0.0041098446 -0.00466293 -0.0042768675 0.0036644936 -0.0007013584 0.0047339792 -0.00017189774 0.0026069398 0.0016003158 0.0032103437 0.0009615984 0.001574962 5.8110832e-05 -0.0040692203 0.0019419603 4.1320105e-05 0.0026000184 -0.0011615364 0.0027086916 -0.0036331054 0.0032076167 0.0030868212 -0.0036711006 -0.0035340055 -0.0009849475 -0.0013209755 0.0003099058 -0.0029392422 0.0045642504 0.0029435658 0.0026004335 -0.0039057035 0.000735622 0.0017372445 -0.002926326 0.0047484925 0.0038181609 0.0027031673 0.0015148176 -0.00020063284 -0.0011990297 -0.0014994546 0.003801581 -0.0014274664 0.0020716107 -0.001198617 0.0043901927 -0.0031597593 -0.0038683559 0.0024875242 -0.0015203815 0.0024115818 -0.0016675589 -0.0013204216
coronavirus -0.0027701291 0.0007549428 -0.0012643795 0.0021745856 0.004980145 0.0018709071 0.0015905712 0.0011314908 -0.004519596 0.0016539926 0.001005262 -0.0039950493 0.0025675208 -0.0034244228 -0.0026257131 0.001091779 -0.0046893805 -0.0047244616 -0.004699989 0.0042526578 0.005001292 0.0003750772 -0.0031620401 -0.003160666 -0.002800094 0.0046940143 -0.0031485544 0.004931381 -0.00032440986 0.002491185 -0.0030356855 -0.0047060116 0.0038450568 -0.00049178523 0.0029956666 0.004348299 -0.003847981 0.0020778906 0.0016781641 -0.001793146 -0.0029332982 0.0014096295 0.0018894221 -0.0015075507 -0.0012510435 0.00036350937 -0.0016567379 -0.00028240768 -0.0028899445 0.0033333087 0.004930535 -0.0005789438 0.00014414325 -0.0016763537 -0.0029842607 -0.0006244782 0.00058226753 -0.0005398647 0.0012440709 -0.001056737 0.00049841637 -0.002136672 -0.0021979979 0.0038613055 0.00070287666 -0.0012966302 0.0019816055 0.002296724 -0.00293436 -0.003528788 -0.0010549129 0.0023276333 0.0013913196 -0.0013245131 0.0024025193 -0.00026034197 0.0032551805 0.00016024767 0.0009299285 -0.0020024145 -0.004196729 0.004396587 0.002865181 0.0028625436 -0.0045782863 0.004523524 0.0045916364 0.0049008676 0.0025119125 -0.00012024776 -0.0045406106 -0.0029528807 -0.0014861581 0.003999489 0.0012344872 -0.0012031917 -0.0021134883 0.004659306 -0.0039433613 0.00045428533
cofondecauch 0.0029664016 -0.0023010066 0.0023389352 -0.00340375 -0.0016950428 -0.0036137444 0.002049225 -0.0038630378 0.000266856 -0.0048145764 0.003313522 0.00093467283 -0.0018018293 -0.0037457657 0.0007970656 -0.003420062 -0.0039590327 -0.0043858704 0.0020992677 -0.0029557673 0.0013396579 0.0022797263 -0.0010752424 -0.0039131884 -0.0031844082 -0.0014584376 0.002083324 -0.002264376 0.0032782182 0.0015203905 -0.0047513605 0.0024106305 0.0031097054 0.004787789 0.0011227505 -0.0009642826 -0.0049412437 0.0028632432 0.004603382 -0.0028172417 -0.0009901545 -0.0027773832 0.0017560882 0.0007180128 -0.0020558464 0.0033018233 -0.0038497553 -0.0010127103 -0.002604023 -0.0027901654 0.00048470593 -0.00019785069 -0.00436003 0.002509971 0.0010239967 0.0041142954 0.0040862295 -0.0020542433 0.00043899685 -0.0010161081 0.0005588484 -0.0039111064 -0.00147997 0.002401083 -0.0018987856 -0.0026884566 -0.00012420709 -0.0018024928 0.0034159098 -0.003617072 0.0021653147 -0.004139658 -6.216698e-05 -0.00090511516 0.0030930315 0.0007266132 0.0013715099 0.0005041266 0.0018270264 0.0047692247 -0.0041085472 -0.002358396 0.00035288688 -0.004730317 0.00037607187 -0.004744948 0.0029162527 0.0044094925 0.004942411 -0.00010251682 0.00018212246 -0.0032938416 -0.001428289 -0.002258729 -0.0034607153 -0.004812964 -0.0006861832 0.0038403175 -0.000503253 -0.00076479616
on 0.002222295 0.004369594 0.00071224035 0.0006289072 -0.0039237323 0.0008153614 0.0047317725 -0.004458311 0.0024435408 0.0010147918 0.003747122 0.0033133174 -0.0020845549 0.0013099324 -6.974535e-05 -0.0017696719 0.0010311226 0.0011460605 0.0015679653 0.0015945106 -0.004660228 -0.0003445194 -0.000528464 -0.0038534282 0.002264349 -0.00015972609 0.0036827552 -0.001931574 -0.0035554976 0.0020288455 0.0036541831 -0.003695336 0.0042558606 -0.0030105512 0.003036659 0.0027076774 0.00089313404 -0.0038633624 -0.00014637316 0.00046101402 0.0033717663 0.0020328816 -0.00067187264 0.0031523597 -0.00092521444 0.0049045705 -0.00018743842 -0.0043479674 -0.0013965139 0.0044077965 0.0025255848 0.004021627 -0.0004515905 0.0045376136 0.0010323027 -0.0021754673 0.0048920377 0.0030733498 -0.00330556 0.0007470224 0.0012658563 -0.0025143428 -0.0008593193 0.0009773051 0.0023680553 0.004475931 0.001399653 0.002079426 -0.0028867007 0.0030923183 -0.0020715452 0.0033130343 -0.00025190803 0.00066564954 -0.0025758434 -0.001764329 0.0042857095 -0.001456706 -0.0007477677 -0.0036908546 -0.0025894565 -0.0027417913 -0.0006306997 -0.0018276827 0.0004172682 0.002909992 -0.00043286948 0.002958913 0.00014627393 0.0038465771 -0.0001440229 0.0010382588 -7.828731e-06 -0.0011687457 0.003712638 0.004374642 0.0028819472 -0.0019282908 0.0004027629 -0.0006911377
cauch -0.00066449324 0.00072811084 -0.0013618962 -0.0007324753 -0.004038539 -8.682423e-06 0.0024513733 0.00067059457 -0.0017119943 -0.004541421 -0.0039887014 0.0038860172 0.0018766664 -0.0028745895 -0.0038067354 0.0041086385 0.0037601986 -0.002683534 -0.0023624382 0.0010717533 -0.0047850767 -0.0009361117 -0.0003212037 -0.0047569033 -0.0032586697 0.00429493 -0.003537665 0.0041388115 -0.0043477095 0.0012134145 -0.0016097346 0.00010871226 0.004086118 -0.004046986 0.0018098252 0.0037537867 0.0018592643 0.0007960227 0.004323349 0.0020835095 0.004793619 -0.0017591935 0.000994322 -0.0012879609 -0.00048408788 -0.004178618 -0.0007827488 -0.005032104 -0.0035905426 -0.0011816848 0.0032319326 0.0044461163 0.004459707 0.00065826345 -0.0023235232 0.0018558013 0.0026859709 0.004398021 0.00027466766 0.0013059492 0.0022111193 0.0047160927 -0.0023516722 -0.0018104282 0.0011747233 -0.0015424256 -0.004092937 -0.0042526065 -0.0032765602 0.0043360246 0.002363061 0.0038436374 -0.002885083 0.00187795 -0.0037949448 0.0050225374 -0.0010147423 -0.004892583 0.0043933904 -0.003874772 -0.004973946 0.00034069887 -0.004854146 -0.0046997378 -0.004339427 -0.003917154 0.0013566809 0.0010443926 0.004673027 -0.001553227 -2.8738923e-05 -0.0043848143 0.0049548377 0.0007695726 0.003986505 -0.0018559676 0.0010278244 0.004097478 0.00039196297 -0.0031034423
mejor 0.0038184 -0.00052678265 0.0042025866 -0.0032467209 -0.0017890986 0.0017295997 -0.0046630623 0.00031787693 -0.0034507182 -0.0013968259 0.0005631012 0.0021151754 0.003667381 0.002964976 0.0030341693 -0.0010630154 -0.001268379 -0.0021797775 0.0045788437 0.0010533305 -0.0043316553 -0.0006168083 0.002429945 0.0021155796 0.0010577557 -0.00095396745 0.0037883224 0.0020759602 -0.0028637827 -0.00084058184 0.0035522166 0.00050771306 -0.0045194044 0.00041148264 -0.0039406014 0.004001068 0.0040980205 0.00039577804 0.0033406464 0.0027136288 -0.00032771996 0.0046439073 0.0017716106 0.0011374964 -0.0022260947 0.0014433102 0.0029564633 -0.004901051 -0.004228088 -0.0026627742 -0.00404467 0.0027142917 0.0035225425 -0.0036755027 -0.0037912128 -0.0022932673 -2.312449e-05 -0.0035013617 8.337919e-06 0.0032260076 -0.0004726684 -0.0034201029 -0.0016240117 -0.002596604 0.0041268053 -0.00010866371 0.0034933318 -0.0014168287 0.0008191251 0.001369916 -0.0011346999 0.003650643 -0.0019054584 0.0034987559 0.004088279 -0.00020655687 0.0030084946 -0.0048724683 -0.003248536 0.00074793136 -0.0032528862 -0.0022334212 0.00083592976 0.004575816 -0.0031978448 -0.00086921034 0.0016819641 0.0029360647 0.001989028 0.001531748 0.0010776995 -0.0027673522 -0.0030044585 0.00091122737 0.004400257 -0.0016400726 -0.0017570328 -0.0030792437 0.0011980301 0.0014648305
mundo -0.0017415447 -0.003116544 -0.0024260138 0.0049037654 0.0031128232 -3.5766225e-05 0.0011279585 0.002138039 0.0042865677 -0.0048327027 -0.0046184785 0.0011695857 -0.0013566302 -0.004353386 0.00058190356 0.0024088898 -0.003876272 0.0023866931 -0.0015804917 -0.004216393 -0.0006341424 0.002420884 0.0048189177 0.0034922212 0.0045362688 0.002252155 -0.0023738847 -0.0014837465 -0.004796476 -0.0026548046 0.0007770692 -0.0021868409 0.0036469337 -0.004375488 -0.00043860156 -0.00446747 0.0020715548 -0.0042049256 0.00093644473 -0.0023065938 0.0034605798 -0.003253005 -0.0038835625 -0.0025707674 -0.0022445957 0.0028378658 0.0018199091 0.0034845131 0.0043047275 -0.004294999 0.0018344445 -0.0026487592 0.004990169 -0.0015846266 -0.004272632 -0.00049575104 0.0017023073 -0.0016202093 -0.0038412216 0.0010931443 -0.0021192902 -0.0049892175 0.00072400784 0.0011182389 0.0034342434 -0.0045245145 -0.0030719924 0.0034021894 0.0011958288 0.0031205756 0.0020511064 -0.0033729703 -0.0042822654 0.0032821286 0.0041293385 -0.0016874968 4.1806314e-05 -0.0050004944 0.0034282359 -0.00010420119 -0.0033886428 0.00045194372 0.0015671572 0.0006239939 0.0027739774 0.004540069 -0.0008210908 0.00059847423 0.0036779628 -0.0045165387 0.0028917498 -0.003201101 -0.0035754347 -0.0049419245 0.0030944932 0.0027705175 0.0017051819 -0.0047667874 0.0044265166 0.0032445258
garcía -0.0025191964 0.0036105474 -0.000668242 0.0029645641 -0.00075078174 -0.0029893904 0.0032396994 0.0046207113 0.00020733138 0.0010095824 0.0034158388 -0.0030028597 -0.0028066183 0.0022617513 0.0034026527 -0.00018300716 -0.0014401955 -0.0041738157 0.0029366934 0.0028076193 -0.0017765153 -0.0021501891 -0.0019312738 0.0035607198 -0.0024211037 0.0045469995 -0.0019759373 -0.0045253593 0.001477923 0.0029790308 -0.0027662427 -0.0013589826 0.002388651 0.0018048292 -0.00016888404 0.004144236 -0.0035398556 0.0038578506 0.0023180342 0.0019401088 0.004800896 0.0024140158 -0.0005489779 0.0027394174 -9.899637e-05 -0.0043618632 -0.0013862645 0.001084061 -0.0025422114 0.002487036 -0.0041038278 0.0040203105 0.004450804 0.0031246713 -0.0024097732 0.00072982395 1.3045251e-06 0.0007585939 -0.0016351327 -0.0016515078 0.0023547765 -0.00046564196 0.001687858 0.00052560464 0.0035694656 -0.0038632546 -0.0009768553 -0.004744252 0.0006454719 0.0011175693 -0.0043370114 0.0043487144 0.003640148 -0.004120318 -0.002720509 0.0028343536 0.00073252793 0.004567982 0.0044817897 0.0036036244 0.00052170735 0.0010208475 0.00063269975 2.1462896e-05 -0.0027681878 0.0043102833 0.00020209797 0.00383001 0.0043952884 0.00024620382 0.0014165761 -0.002604366 -0.00094549626 0.0034488963 0.0033025793 0.0014422325 -0.0035390784 -0.004001181 -0.0032249726 0.004914749
parte -0.00064083847 -3.9666716e-05 -0.0040409025 -0.0037612023 0.0023372725 0.0037427328 0.0011559058 0.0036030852 0.0014574969 -0.0020352427 0.0029194083 -0.0014866577 -0.0024807123 -0.0045635677 -0.003201935 0.0050283032 -0.0020017857 -0.0047702226 0.001411895 -0.0023212745 0.0014828315 -0.0031729257 -0.0032969716 -0.0022646827 0.0019280473 0.0037125514 -0.0023309228 0.0024534264 -0.0022601618 -0.00036088206 -0.0048020016 0.0006354549 0.00053847197 0.0014237076 0.0016548861 0.0020138235 0.0046915524 -0.0017571177 -0.0025148708 0.0018636927 -0.0011452743 -0.004019106 0.004160669 -0.004128198 -0.001186688 -0.003259359 0.002723537 -0.0041315435 0.00426718 -0.003560052 -0.0014907388 0.004515155 0.0032837205 -0.0048493017 0.001326931 -0.0025374787 -0.0043713846 0.0016254843 0.0011649977 0.0002852408 -0.00477438 -0.0018066011 0.0032715653 0.0030960161 -6.191034e-05 0.002188218 0.00034617353 -0.0044271364 0.0006460324 -0.0032306297 0.0019257826 -0.00094581925 -0.002518519 0.0015610665 0.00084426627 -0.0026902452 0.00089800835 0.0045572305 -0.0010142793 0.0028011529 0.00483815 0.0024123047 0.0035065433 0.0043485537 0.0036984605 0.0018858954 0.0026988806 -0.0016960147 0.0041836575 0.003890804 0.0011757407 0.0019718744 -0.004596584 -0.0006364062 -0.0024809588 0.0046302383 -0.0050463546 -0.0043844725 0.00347636 -0.00010460079
the -0.0016328293 -0.0033339043 0.0007952454 -0.00073454157 -0.00019025707 0.0007346258 -0.004830078 -0.001019741 -0.00044056962 -0.002682093 -0.0022195296 -0.00016890599 -0.0025338607 0.0046108393 -0.0046580946 0.003662407 -0.00033359593 0.0029656852 -0.0048884447 -0.002483111 0.0027183671 -0.0009140244 0.002057196 0.0003855353 -0.0022259832 0.0021431947 0.0027100963 0.0009323442 0.00070827006 0.0024119108 0.00035152008 -0.001775579 -0.0030609637 -0.0017923948 -0.0020113592 -0.0044041784 0.0047503044 -0.0009502296 -0.00028000618 0.003675485 -0.002032814 -0.000977821 0.003393772 -0.001827736 0.002196663 -0.004291032 0.0028547153 -0.003654913 -0.004991524 0.003591337 0.0011052957 -0.0020725308 0.0034831378 -0.0040431353 0.0011395686 -0.00020731172 0.0034319435 -0.0024916667 -0.002092264 -0.0005235948 -0.0040903124 -0.004833329 -0.0045768633 -0.0038891507 0.0017169823 0.0022673444 0.00048964506 0.004282081 0.0028755548 0.0011635371 0.0026485373 -0.0046449276 -0.0035137364 -0.002964679 0.00385496 0.0032472424 0.0041662147 0.0038670057 0.0017532894 0.0026509068 0.0047177244 0.004176505 -0.0009919548 0.0023109913 0.0020222128 -0.0034011258 -0.00046943643 -0.00039692086 0.0029160827 0.0034625567 0.004711481 -0.0009698849 0.004127089 5.617155e-05 0.0020741096 0.002389349 0.002623589 0.0001747346 -0.0013466796 0.00048148297
navidad 0.0030774358 0.002219796 -0.00091487204 -0.0017752731 0.00043213804 -0.0029990228 0.004585111 -0.0034381405 0.0030607576 4.748792e-05 0.0038689496 0.0037478644 0.0007585341 0.0016917827 0.0017784174 0.00015147634 -0.004172605 9.2660564e-05 -0.0003946426 0.00038141408 0.0023354795 0.0033312703 -0.00056982145 0.004751389 0.0002087966 -0.0043050195 0.00010606217 -0.0030265327 0.0022780376 -0.001638543 -0.0008077237 -0.004375758 -0.0010549661 0.004646273 -0.0007640095 -0.002719431 0.0045539024 -0.0042261453 0.0013183197 -0.003988114 -0.0047231624 -0.004559138 -0.0041606673 0.0045654243 0.0024802408 -0.0048348787 -0.0012745971 0.0044445987 -0.0025524045 0.004971618 0.0011150242 0.0029663662 -0.004755996 0.0017363831 0.0017288978 0.004266844 0.0029908547 0.0023784905 -0.0019316257 0.004197827 0.0026832642 -0.004551574 0.0047580525 0.003756806 -0.00013310873 0.0028324325 0.00015669131 -0.004289997 0.004348462 0.004584221 -0.0018717323 -0.0023124022 -0.0018661903 0.003059079 -0.0028963443 -0.0025525468 0.0007528387 -0.0030434295 0.002621605 -0.002634935 -0.0049315304 0.0039110207 -0.0038422872 -0.0035815658 0.0019352224 0.0013651393 -0.0010536235 -0.00017048937 -0.001386376 -0.0010310216 0.004311507 -0.0023710527 0.0019336165 0.0007224392 -0.00014392665 0.003937104 -0.0027635423 0.004928753 0.00211991 0.0030332806
vs -0.00475735 -0.0030499303 0.0024373808 0.0012060179 -0.0007197235 -0.0034586757 -0.0029805286 0.00025674773 0.00023905396 -0.0039598206 -0.00217303 -0.0011536118 -0.0011420904 -0.001048294 -0.002382803 0.0016400418 0.0032050926 0.004431385 0.0017649316 -0.001925908 0.0044301804 -0.0013364723 0.0040630274 0.0033779752 -0.0045954115 -0.004916496 -0.0035984633 0.0021209584 0.00483836 0.003998613 0.004498762 -0.0035445073 -0.004203205 -0.0035508464 -0.0036625857 0.0015551747 -0.0049397917 -0.00443183 -0.00038012888 -0.00080704567 0.0035839311 -0.000105313855 -0.0013018204 0.0046900497 0.0043321764 -0.002378662 0.0024300197 0.0038560163 0.0019948147 -0.00010942902 0.0035836543 0.00040679154 0.00032310805 0.0020015042 0.0020793914 -0.0020032725 0.0016989659 -0.0014870148 -0.0016112408 0.003405115 -0.003039468 -0.004545928 0.0040753423 -0.0042583114 -0.0039315512 0.0006269683 0.0012781933 0.00054693007 0.001604271 -0.00321784 0.0034309898 -0.0049234503 0.003917439 0.0015831304 0.0010586784 0.0043049133 -0.0019548638 -0.0026175827 0.004777152 0.0003355279 0.0020847365 0.0032177095 -0.0017294615 0.0012486482 -0.00087956694 0.00500404 -0.0021067788 -0.004726724 0.0041866023 -0.0037524393 -0.0024084297 -0.00040688078 0.0004207997 0.0041743317 -0.0020927966 0.0018926531 0.0012778582 -0.00057852594 0.001405222 -0.0036330335
programa 0.003038461 -0.0021021923 0.0030074562 0.0003026943 -0.00073658244 0.00412724 0.0048211915 -0.0033958578 -0.0031862913 0.0031760186 -0.0009756456 0.0045122183 -0.002610374 0.00023611585 -0.0031722304 0.0037809582 0.0034440954 -0.0007512036 -0.0040053106 -0.0043276586 -0.0014337859 0.0014438359 0.003216855 -0.002459686 -0.0009573404 0.00494891 0.0042046984 0.0006041872 0.0036239373 -0.0039153122 -0.0036547515 0.0026184346 -0.0041101463 -0.0037071898 0.003570031 -0.0047167265 0.0002349592 0.00023247155 -0.0016763416 -0.0042160023 0.0014016016 0.0021045443 -0.004577646 0.0021144743 -0.0024882234 -0.0035390381 0.00070944737 -0.00022272213 0.00041451518 0.0009546396 -0.0010654936 -0.004284818 0.00068788644 -0.002627962 0.0008574061 -0.0009412727 -0.0015716769 -0.00094337174 -0.0043503875 0.00079699256 -0.0008341495 0.0025778397 -0.0049247625 0.0039199833 0.0045476146 -0.0034655766 0.0029557399 -0.004414042 0.0024525146 0.0003774786 2.9364912e-05 8.75334e-06 0.0049254913 0.003903588 7.881299e-05 0.00010508416 -0.0008692783 -0.0027601062 -0.0043704533 -0.0008494725 0.002536583 0.0025497898 -0.004275098 0.004498745 -0.0041931327 -0.0047382694 0.0038058283 -0.0014240985 0.000108325505 -0.003906087 -0.0039074565 -0.004621074 -0.0026020573 -0.0024489542 0.00084350223 0.004567361 0.004553172 -0.0032243708 0.0011633984 -0.0014979293
borja 0.004065915 -0.0031599756 0.004961868 -0.0019847502 0.0017311124 -0.0007235328 0.0040804567 0.004101928 0.0018430006 -0.002857418 0.0023824116 0.00401778 9.1496375e-05 0.0029346945 -0.0038810922 -0.0010910322 0.003523887 0.0020032623 0.00023856678 0.0043251575 -0.0018863683 0.002450442 0.003568466 -0.0014603764 0.0034215695 -0.0018675264 0.00030143285 -0.0043456284 -0.0036809514 -0.0010154947 -0.0044890684 -0.0005701347 0.0014861169 -0.0009248624 0.0031024509 -0.0020986462 0.0043442193 -0.0030761135 0.0032633897 0.00090655696 -0.0012629661 0.0022755486 0.0021389115 -0.004088928 -0.004724276 0.0012056626 0.0031058697 0.004419618 0.002724502 0.0036697446 -0.0024695904 -0.0004791852 0.0048142667 0.0042559034 0.0043787453 0.0001703516 -0.003362049 0.0048174355 0.0032009478 -0.0021885128 0.0006887246 0.0045734504 -0.00054056704 0.0030563767 0.0008317494 0.0025672344 0.0019358405 0.0025402033 0.0031280473 -0.0015839677 0.0026533923 0.0014139484 0.003109769 0.0020519427 -0.0037820456 -0.0027149867 0.0020457788 -0.0032290872 -0.00083490054 0.002331428 0.0033418483 -0.0047997893 -0.0042338707 -0.0024477986 0.0033638165 -0.0038358457 0.0039548124 -0.0027161448 -0.0022487298 -0.0022821254 -0.0049045114 -0.002017647 0.0029091653 -0.000996991 -0.002903766 -0.0024712258 0.0003786469 0.004641145 0.0039018982 -0.004580214
peor -0.0048060445 -0.0041891714 0.0005798283 0.0038076628 0.0041414243 0.0046928776 -0.0028091313 -0.00085256406 -0.0043531135 0.0019314005 -5.4532724e-05 0.0005909586 -0.0027474724 0.001353316 0.001334719 0.0015156292 0.004494128 -0.00076163403 -0.004389288 -0.0010734348 0.0023870673 -0.0028966255 -0.0022870002 -0.0030265574 -0.000110033856 0.00065796555 0.0030444472 0.00035562602 -0.0012913053 0.0034535776 4.0575807e-05 0.0024245235 -0.0042070854 0.0016556503 -0.0033245736 -0.0015652388 -0.0042206254 0.0015924792 0.0019594508 0.00071759097 -0.0031868936 0.002605764 0.0020811765 0.0007204233 0.0049623842 -0.0011410305 -0.00043665332 0.001144661 -0.00015595208 0.0036477097 -0.0012049369 -0.00056924083 -0.003730179 -0.00016536863 -0.0011338841 -0.0041139945 -0.0013399925 -0.0026782593 0.002557894 -0.0032195216 0.00041051034 -0.0029345155 -0.0017023175 -0.0031173783 -0.0015714968 0.0045520356 -0.0008464031 -0.0033196742 -0.0039529107 0.0025774608 0.00306253 -0.0005064057 0.00096555415 0.0014134481 9.270917e-05 -0.001064711 -0.0007108024 0.0018279252 -0.0037403703 -0.0028127644 0.0023722474 0.0036327909 -0.004953816 0.0024897375 -0.0006983848 0.0004886666 -0.0014808011 -0.0014526646 -0.0008322886 0.0040756254 -0.004737662 -0.0014593966 0.001588861 0.00072837604 0.0019826966 -0.003757403 -0.0030179082 0.0007424519 -0.0012216085 0.00068582507
yorya 1.2318886e-05 -0.00493349 -0.0022825554 -0.0028738435 0.0016579279 0.000597957 0.0014304451 -0.0026712466 -0.00043195867 -0.004726183 -0.00025418773 0.0029561445 0.0012627705 -4.8696926e-05 -0.0024849533 0.003931287 0.0010204001 -0.0038489108 0.004099466 -0.0037625164 -0.0010762616 0.0036938882 -0.0021990973 -0.0010705653 -0.0015168028 -0.0021524988 -0.0030295753 -2.8674733e-05 -0.0017034367 0.0015931915 0.0042695142 -0.0033837648 -0.0005422532 -0.003222303 -0.003838961 -0.002108729 -0.001343537 0.00037465256 -2.8869995e-06 0.0015229459 0.0047333604 0.004145274 0.0037811494 -0.0046959147 0.0040370147 0.0046205963 -0.0016360632 -0.0043953992 0.0026632478 -0.0011567777 -0.0019126124 -0.0035161125 -0.0025635567 0.001524678 5.449282e-05 0.0029814718 -0.001060214 0.0015509467 -0.0045673763 0.0028371096 0.002471196 -0.0030199238 -0.0031418938 -0.003063204 0.0041621923 0.00027098507 0.004886459 0.0017316949 -0.002783295 0.002728667 0.003118447 0.0031501553 -0.0009922943 0.0007723624 0.0036282986 0.0026525198 0.0029032372 0.0046732016 -0.0048632678 -0.0045341784 -0.0034716504 -6.18239e-05 -0.0016799199 0.0028264455 0.0037286426 -0.0011654176 -0.0016137197 0.0021564977 0.0044622542 0.0048912866 -0.004756464 -0.0031966832 0.00087949523 0.0033585047 0.0021447663 0.0012351396 -0.0047521037 0.004818782 0.003237781 -0.0011200844
impro 0.0023796656 -0.0036699164 0.004068016 -0.0016740839 0.002976123 -0.0046585924 0.0049693105 0.0020104658 0.0045449077 0.0021057678 0.0009429044 -4.856784e-05 0.0034098823 0.004711364 -0.0029109633 0.0036289624 0.0031026741 0.0025159102 -0.004277007 -0.0011828159 0.0012801334 0.0014636394 -0.0033530337 -9.906692e-05 0.004706355 -0.0048876624 -0.003832265 -0.0010303011 -0.0018093754 0.0040664105 0.0024815411 -0.0010160377 0.0026074536 -0.00024031595 -0.0031917603 -0.0030319965 0.0012645439 9.7024764e-05 0.0031299735 -0.002090464 -0.0005168155 -0.0047091153 -0.00036563078 -0.0025876977 0.000485973 -0.00046153355 -0.00027839505 0.00019781271 0.0034197273 0.0013999688 0.002091907 0.00088050746 -0.0036836276 0.0004077115 -0.0005471734 -0.0016299874 0.0026491818 0.0022143978 -0.002765133 0.004913446 2.4405788e-06 0.0011464388 -0.00016829061 -0.0010757919 -0.0013764317 0.0018773306 0.004557391 -0.0029256383 0.004697114 -0.0028373187 -0.003942988 0.003794939 -0.0018931256 0.0049780747 2.787946e-05 -0.0019529489 -0.001992204 -0.0026230034 0.0037735042 0.00040360316 0.0022356322 0.0014754114 0.0003766727 -0.0039640954 -0.0047087115 -0.0003641863 -0.0020358567 0.0016930645 -0.0022786155 0.0012047581 -0.0018548622 0.003344413 -0.0010093186 -0.0034427023 0.0034580915 -0.0039411206 0.0026264496 -0.00016678064 0.00040967495 0.00047429083
peores 0.0033708028 0.0016396254 -0.0015895384 -0.004875829 0.0031747539 0.0010079474 0.0043993 -0.0019933525 -0.003555926 -0.00044964624 9.1439295e-05 -0.003876098 0.0048082676 0.0032296223 0.000969305 0.0049388832 -0.0011750602 0.00481423 0.0032186809 0.00092661195 0.0023203772 -0.0045001577 -0.0042983945 -0.0034880238 0.0034009586 -0.00029139544 -0.0011572978 -0.0050009536 0.00027343223 0.0044090976 0.00091706944 -0.0021918416 0.0029301778 -0.0042262343 -0.0026161752 0.0039748643 0.0007102671 0.00048624416 0.00033158757 0.0015647484 0.0031923817 -0.0039904593 0.00026232994 -0.004622361 0.00202628 -0.004347618 0.000751871 -0.0020332343 0.0038871136 -0.002269481 0.0033491417 -0.0007112778 -0.0016037556 0.0008987836 -0.00029287577 -0.0021510983 0.0021826357 0.0025547391 -0.0011818255 -0.00206096 0.0043530795 -0.0021245994 0.00075819757 0.00061698054 0.0012107268 -0.00071114517 0.0025229384 0.0047501293 -0.0030225914 -0.0044640824 -0.0048003076 -0.0015371987 0.0033632868 0.0037543096 0.0003044059 -0.0006970552 -0.0015898946 -0.0043747188 0.0014325145 0.003673955 -0.002732529 0.00031616667 -0.0019486733 -0.00044072716 0.003163792 -0.004513662 0.0024318655 -0.00079867203 -0.0032716943 7.959993e-05 -0.0032455178 0.002481427 -0.0023101787 -0.0038734137 0.002823865 -0.003427097 0.0037437067 0.00451743 0.00044523765 -0.003743707
interneto 0.0028190801 -0.001300645 0.0034959132 -0.00059058523 0.003936423 -0.0011267375 0.0042492393 -0.0046322215 0.00012678636 -0.003331093 0.0015029917 0.003294673 0.0032776138 0.0041131396 -0.004034883 -0.003172928 0.00014869196 0.0014036177 -0.0040051145 -0.0020971708 0.0011697448 -0.0038814934 -0.0014551885 -0.004055454 -0.0010205945 0.0037690513 -0.0040356186 -0.00072434 -0.0011964223 -0.0026731568 -0.0028311333 0.0013429308 0.00019270137 0.0017288387 -0.0013372586 0.0029598116 0.004077646 0.0045326296 0.0028043636 -0.0020091387 0.00094934547 0.002175922 -0.003450882 0.0027668206 -0.0010233854 0.002392371 0.001679729 -0.0011718414 0.0020508666 -0.0016458678 -0.0022745482 0.0028408824 -0.0029666226 8.741715e-05 0.00064876606 -0.0043949885 -0.003776094 -0.0049351626 0.0026271618 -0.004385881 -0.0011284226 0.0018613244 -0.00493789 -0.00053953734 -0.0012578602 -0.0031848117 -0.0027723892 0.00485975 0.0048723235 0.0017174068 -0.0007904129 0.0017481733 0.0032914404 0.0026104685 0.0034874182 -0.00085769116 -0.00079559424 -0.0016425403 -0.0013069864 -0.003826427 0.0048956717 8.705118e-05 0.0048690313 -0.0021141646 -0.0034787173 0.0034287104 -0.00039936748 -0.004590918 0.0031798612 0.002940653 -0.0016941603 0.00063110964 0.0030558046 0.002778412 -0.0015642021 0.0013350021 -0.0042493376 -0.0029646168 0.0005848235 0.0003423918
cerrado 0.0042090733 -0.0017647573 0.0029899979 -0.0046330257 0.0038219395 0.0009962787 -0.004174841 0.0018969718 0.0013017101 -0.003819341 0.0036340228 -0.004531946 0.002938661 0.0023136237 0.0039176717 0.0034333859 -0.0035733331 -0.00018693415 0.0033089675 0.0025951741 -0.0017999805 -0.0044724345 0.0045588785 0.00490515 0.0007976742 0.00011782558 -0.003732389 -0.0026570284 -0.0013895287 0.002560234 -0.004367951 0.0031658798 0.0018300974 0.0032731623 -0.0011580132 -0.0010159422 -0.0022198833 -0.0038330518 0.0010256903 -0.0045324117 -0.0019672755 0.000315818 -0.001211136 0.0009285354 0.00043940978 -0.002974508 -0.0013897511 0.0016874366 -0.00030397103 2.3308468e-05 0.0048922156 0.004212893 -0.0026124818 0.0016757888 -0.002720752 0.004571516 0.00158367 -0.0023585618 -0.0011596726 0.0004673627 0.0032960672 0.0009837379 -3.855125e-05 0.0009468699 0.00065762404 0.0048218267 0.0015002813 -0.00097177835 -0.00018213545 -0.00031422658 0.00028448078 -0.001125889 -0.00032303866 0.0040360913 -0.0016933606 -0.0012627123 -0.0041733733 0.0038242256 -0.0033820744 -0.0014567599 -0.0039906367 0.0038625242 0.00080428645 -0.003718686 0.0040842164 0.002584279 0.0034013228 -0.00025922604 -0.00012742619 0.0035021494 -0.0039540664 0.0020054006 0.0029370533 -0.0035347603 0.0039689387 0.0041646957 -0.0028055958 0.0016223589 0.00043580047 -0.00044860668
kaco -0.0033317578 -0.004287261 0.0025996314 -0.003829953 -0.003402196 -0.0045271576 -0.001939718 -0.0015455316 0.0017066548 0.0005157497 -0.00079608307 -0.0004419881 -0.002989683 -0.00017549057 0.0043666414 -0.0017790598 -0.0014437132 0.0031787166 -0.004427803 0.0032163742 -0.0043654577 0.0018160633 0.0003292673 0.0024941259 -0.0039968714 0.0033244723 -0.005021744 0.003047423 -0.0027421894 0.003840081 -0.0037397593 0.0035265347 -0.003732647 -0.0030229217 0.0027242906 -0.0016720748 0.003102052 0.0034554827 0.0023192866 0.0034480381 0.0010652987 -0.0025583804 0.004666511 0.002044858 -0.004769142 -0.0004264594 0.0033351893 0.0020279954 0.00083373935 -0.0016520174 0.0036219195 -0.0037154644 -0.0038972544 0.0032965501 -0.0043025315 -0.0023138965 -0.0034943472 -0.0040680557 -6.492211e-05 -0.004819555 -0.003500657 -0.003999269 -0.0023187478 0.0020055152 0.0048636 0.0031300725 -0.0011066182 -0.004338796 -0.003990146 -0.0043282146 0.0040057385 -0.003192788 -0.003841649 0.00040460716 -0.004033138 0.004211201 0.003086823 -0.0026401791 0.003267506 -0.00081765343 0.0025903196 0.00068361603 -0.0011705452 -0.0005436987 0.0037552735 -0.0034053419 0.00063582073 0.0025212076 -0.00349585 -0.0026563066 -0.0023933717 0.0018573782 -0.00441329 -0.0030758018 0.0010947367 0.002536664 -0.0026233469 -0.00043166612 0.0034098104 0.004483814
madrid -0.003209478 0.0010890694 -0.0019830207 -0.0031910627 0.004445582 0.0005758652 -0.004256811 0.004078643 0.001895173 0.0043375124 -0.0036382987 0.00012827427 -0.0030949651 -0.0024099688 0.0011911143 -0.00034729048 -0.0047468054 0.0036062587 -0.0020999704 -0.0043983627 0.0018126328 0.0035633533 -0.0022066236 -0.004337939 -0.0037606994 -0.0042744586 0.000537631 0.0027320217 0.0015421067 -0.0016689932 0.0007610368 -0.0019783776 0.0008067601 -0.004869774 0.0037076967 -0.0033904328 0.0011094593 -0.0041860035 0.0022982294 0.00059605757 0.0016091868 -0.0030252214 -0.00010822092 0.00084289943 -0.003810351 0.00078705983 0.0048238887 -0.005019293 -0.0009975529 0.0024407206 0.00024010593 -0.0032935666 0.001717165 0.003615354 -0.00012309056 -0.0009490432 0.0010321997 -0.0011330112 0.0047259475 0.003317774 -0.0007471948 -0.0025851582 0.0004717742 0.000564843 -0.0032736582 -0.0044442755 0.0043339636 0.0025735546 0.0017044062 -0.00081470644 -0.002732799 0.0019436798 0.002337032 -0.00030689486 -9.6538875e-05 0.00010611439 0.003672309 -0.003690305 -0.0026272207 0.002645397 -0.0039222464 0.0034581707 -0.0045564016 -0.003752061 -0.001748892 -0.0015346701 0.0042154575 3.799442e-05 0.0049788887 -0.0046815984 -0.0020959892 0.0023183764 0.00015557626 0.0027030776 -0.0034117864 0.0046363682 -0.0014472995 -0.0012144744 0.0040408582 -0.003979717
nuevos -0.0009497871 0.0014769023 -0.004402042 0.0047542993 0.004483959 -0.0028469756 0.004529776 -0.0012332 -0.0029218295 0.00065846794 -0.0042026094 -0.0027246096 -0.0048820535 -0.0030556566 -0.0022342282 -0.0018985781 0.0029908319 0.0044560228 -0.0030536116 0.0048577194 -0.003974445 0.004412639 -0.003950571 -0.0023750192 -0.0018568061 -0.0049377587 -7.325681e-06 0.0010146627 -0.004724665 0.0046332213 0.003767306 0.0001752918 0.0012993648 0.0045780144 0.0010857864 0.0009671189 0.0014423919 0.003164456 -0.00066175585 0.00053914805 -0.0014449118 -0.004964479 0.0046978975 0.0029334049 0.0019243471 -4.1305208e-05 5.8216074e-07 0.0032186604 -0.0038511297 0.00047888627 -0.0041312426 0.0005998514 0.0026773682 -0.0049300287 -0.00019690691 0.0012028993 0.0014126883 0.002950412 0.0030931218 0.0013603038 0.0010427285 -0.004171821 -0.004058319 -0.0010062347 -0.0011456147 -0.0024050183 0.004269418 0.0018651331 0.003663229 -0.0043253894 0.0033194828 -0.004697128 0.00447721 0.0028609696 -0.00016860936 0.00011191733 0.0033413053 0.0039003193 0.0047691516 0.00044387777 0.004530273 0.0045426628 -0.0024038837 0.004612938 0.0032774215 0.0003824935 -0.0012289664 -0.0021284367 0.0038596685 -0.003494665 -0.0028942632 -0.0020326693 0.00047154684 0.0018086263 -0.004867658 -0.004057211 -0.003790659 0.0025517456 0.0017896688 -0.0013589569
galaxy 0.0017620884 -5.961444e-05 -0.003046679 -0.0039199553 0.004781088 0.0042283237 0.00014877126 -0.003951528 -0.004572058 -0.0019719412 0.0035008127 -0.0028057825 0.00030364812 -0.004338454 -0.00064294104 -0.0010860172 -0.002410056 -0.00011284128 -0.001241735 -0.0027415424 -0.0030308363 -0.0005183865 0.0014914611 -0.002909174 -0.00015544094 0.0047500855 -0.0030398644 0.0041870023 -0.0017568502 0.0016808105 -0.0030227553 0.0011182316 0.0035843127 -0.00085801 -0.0037054603 0.0028909617 -0.0033119905 -0.001281313 0.003956248 0.0013132804 0.0044099586 0.0019595854 -0.0024239765 0.003327137 -0.002735418 0.0039223502 -0.0046746535 0.0032538439 -0.003982303 0.0013056326 0.002969466 -0.00015722359 0.0017327629 -0.004017442 -0.0013481088 -0.004895212 -0.0022249483 -0.0011245828 0.004197822 0.004314557 -0.004951247 -0.0031002066 0.0009880688 -0.0012085461 -0.003777389 0.0030228368 -0.0046696374 -0.0037288137 -0.0045216247 0.0017245159 -0.0046701413 0.0005932566 -0.0021804823 0.0033916952 0.0029352698 -0.00088919856 -0.0006754334 0.0028572816 -0.003480999 0.0006452955 0.004315551 -0.0046715206 -0.0030455329 0.0005831317 0.00081716717 -0.004734405 0.0027259176 0.0029478436 -0.0014564052 0.0029739286 -0.0007692354 -0.004069349 0.0005957824 0.0035041494 0.0011505708 0.0021790236 0.004075849 -0.0028800464 -0.0041548694 -0.0040890374
mayores -0.0015576124 -0.0025964982 -0.0039100233 0.00060898106 0.0023504545 0.0019355083 -0.0042507034 -0.0010562461 0.0048749084 -0.0031513786 -0.0044447975 -0.0018055246 0.004806637 -0.0025075315 -0.0021738205 0.0016948074 -0.0023382278 -0.0013881628 0.0012678409 -0.003688967 -0.0029830888 -0.0039432882 -0.0014967719 0.0023796193 -0.0007569478 -0.0008266891 -0.00016154636 -0.0022697975 -0.0012450317 0.0014457101 0.00018389398 -0.004311659 -0.0033453784 -0.0026734208 0.0029277625 -0.0010958993 0.0026047737 0.0037459433 0.0049634757 -0.00323674 0.0031714167 0.0012278277 -6.2307e-05 0.0014953376 -0.0039117555 -0.001530521 -0.0028834096 -0.003235608 0.0018517583 -0.0032978696 0.0017589345 -0.001715165 -4.2324282e-05 -0.0032007918 -0.001028491 0.003973496 0.0019383711 -0.004617896 -0.003469754 -0.002370127 -0.0032953334 -0.0026944468 -0.0021540804 0.0037358932 -0.0045197383 0.004215295 -0.0025466832 -0.0026984522 -0.0004461124 0.0046084966 -0.0014938546 -0.0005533178 -0.0002529977 0.0037801126 -0.0010310011 0.0030301865 -0.0015960472 -0.0046175597 0.0045154914 -0.0049209855 -0.0019226363 -0.0043208925 -0.0005423671 0.004551671 0.00069566775 0.004925218 8.645819e-05 0.0025674317 -0.0040269187 -5.205567e-06 0.004568342 0.0007625906 -0.0023836333 -0.0045631165 0.0023245243 0.0019216435 -0.0013442562 -0.00028629738 0.0023277164 -0.0028975084
amor 0.00036842172 -0.002370649 0.0048268703 -0.0008887677 -0.001881031 0.0037961223 -0.0037165892 0.003260097 0.004130237 0.0022746322 -0.0027636772 -0.00399693 -0.0024518622 -0.00080178736 0.0024774196 -0.0016250369 4.1633593e-05 -0.004348888 0.0036684915 0.0011448797 -0.004723503 -0.0014881345 9.861979e-05 0.0021880677 0.002318894 -0.0024417853 0.0048214006 -0.0021956419 -0.0024785693 -0.001328095 0.0008528593 0.0037558 -0.00055998866 -0.0036580723 0.0009447927 -0.00032841033 0.0034474127 -0.0044546933 -0.00065508124 -0.003342042 -0.0040181926 0.0006128141 0.0024611338 0.0017490485 -0.004420454 0.003360956 0.0008663191 -0.00074336794 0.0032119427 -1.608087e-05 -0.0013614347 0.004801311 0.004509856 -0.0018689722 -0.001668279 -0.004543557 0.0011334706 0.00026021388 0.002100376 -0.0013131383 0.0031050085 -0.001491897 0.0043920917 0.0034922168 -0.004178147 -0.004053326 -0.0028028828 -5.0917995e-05 -0.0026883075 -0.0005935153 -0.0030004089 0.0038474663 0.0049301353 -0.0025822942 0.0037544137 0.0001917262 -0.00094799633 -0.0040067607 -0.0044612517 0.003962849 0.0009377265 0.00076293654 0.00024344212 -0.001389045 0.0007623701 0.00022469876 -0.0017198311 0.0013373514 0.0014338611 0.0047492553 0.003541944 0.0024849374 0.004501873 -0.0040639453 0.0012833995 -0.0043995883 -0.002695616 -0.0033666203 0.004609644 -0.0026856135
así -0.0033676764 -0.0010426397 0.0022643325 0.0018264953 0.0042819483 -0.003469742 0.0014146182 0.0029304028 -0.004854777 -0.0025304728 -0.0028549056 0.0032198858 -0.004981711 -0.003017104 0.0039402484 0.0020430968 -0.003949255 -0.001322997 -0.00073988957 -0.0021911915 0.0036093506 -0.0027566098 0.0010144841 0.0017541855 0.0029557971 0.004721053 0.0015391569 0.0029856244 -0.0010579816 0.00293684 -0.0027916008 9.942665e-05 -0.0014935521 -7.9276906e-05 0.002216317 0.002997843 0.0030583516 0.0012515616 0.0021219985 0.0024317794 0.0017883702 -0.0035613258 -0.0005037104 0.00050470175 -0.00235201 0.00037417878 -0.00059876015 0.002073033 -0.0029189955 -0.0007794293 -0.003017888 -0.0015003118 0.00058364245 0.004987481 -0.0036216856 0.0017058637 -0.00410117 0.0014814397 -0.003274803 0.003883819 -0.0049334406 -0.0002919216 0.0017610526 0.0024417853 0.004320064 -0.003009866 0.004176952 0.0035898325 -0.0042275195 -0.004891085 -0.00075735507 0.0012241693 0.004384802 -0.0021262649 0.0008675684 0.0009676446 -0.0046034837 0.0044793687 -0.0009597196 0.00045759356 -0.0035025468 0.0033246232 -0.003749312 -0.0005099405 0.004869328 0.0014745942 -0.0023779222 0.00016192044 0.0026583364 -0.0027991016 -0.0020377436 0.0021380624 -0.00435662 0.0029259117 0.0045910263 -0.0047172722 -0.0031982434 0.004251886 0.0011260874 -0.0021135195
fin 0.0033282866 0.0013904488 0.0016914965 0.0034396062 -0.004326536 -0.001131071 0.0033733372 0.002064855 3.6769787e-05 -0.0035145504 -0.00063914177 -0.00067194476 0.0005203926 0.0025832537 0.004013983 0.0027688295 0.003007595 -0.0008002544 0.0032580672 -0.0043733683 -0.0016227649 0.004861339 -0.004129773 -0.0022071612 0.0043228557 0.004720942 -0.00081748504 -0.0034922855 0.0006295486 0.0012528037 0.00469423 0.004169575 0.0025721285 -0.0020973957 -0.002560122 0.0037216933 -0.0045745433 -0.0043143663 0.00090680126 -0.004162131 -0.0012912948 0.0033195599 -0.0023279928 -0.002381094 -0.000516758 -0.0007638678 -0.0028701918 -0.00031738385 0.0048911506 0.00028371066 -0.001811565 0.0027981845 0.0034987552 -0.0021520052 0.0036328183 0.0013184686 -0.0042166375 0.0007600418 0.003938746 0.0033794788 -0.0040609906 0.0016324593 -0.00017232761 0.00030131816 0.0019309671 -0.0018731095 -0.00045920422 -0.0033997078 0.0039738696 -0.0024319305 0.0037875867 -0.0035221765 -0.00019760216 0.0034875986 0.004613311 0.004055833 -0.004228479 -0.00081009994 -0.0014880272 -0.002025188 0.002577123 0.0030011353 0.004851895 0.0030032215 -0.001556657 0.0026536635 0.00043279593 -0.0046975613 -0.0002902407 -0.0026782313 -0.0028184953 0.0015932135 -0.0043918514 0.0029837587 0.0033430732 -0.0036003254 0.004383953 0.00469954 0.0020704274 0.004900288
carlos -0.0007221576 -0.004718153 -0.0014941904 -0.004921176 0.0003478681 -0.0021899168 -0.003495534 0.0029094857 -0.0030724462 -0.00062602485 0.003803516 -0.00056546374 -0.0035362474 -0.0044685937 0.0034467094 -0.0019082627 0.0047548325 -0.0021023012 0.00039784136 -0.0006671623 -0.004036527 0.004099112 -0.0009029016 -0.0033355406 -0.0016155924 -0.0033865422 -0.0009126669 0.004866253 -0.00040752045 0.00024904846 -0.0032659401 -0.0010241487 0.0019148021 -0.0016150485 -0.002091534 0.0034122567 0.0020835153 -0.00013141219 -0.0039409245 -0.0028874853 -0.0042588613 -0.002619142 -0.0032116505 -0.0018809898 0.0014249886 -0.00014377145 -0.002519574 0.0025107542 -0.00054845517 -0.0041638603 0.00022831565 0.0023138593 -0.003758453 -0.0032458922 -0.0041902666 0.0015941384 -0.0047211037 0.0046535823 -0.0038802042 -0.0045580347 0.0019105092 -0.0023418926 0.0045444085 -6.3069296e-05 0.0043939403 1.0780355e-05 -1.9022571e-05 0.0042698146 0.0035466861 0.0013340154 0.0048878985 -0.0039047834 -0.0027336925 0.0010440398 -0.0034848086 -0.003746923 -0.00084226334 -0.0030985076 0.002542661 0.00023801788 -0.0047464124 -0.0043439576 0.0021761332 -0.00045041722 -0.0041496116 0.0018283974 -0.00023794654 0.00046072082 0.0040828 0.0020478377 -0.0002972046 -0.00074567256 0.003576928 1.4932008e-05 0.0005944472 -0.0039314325 0.002590333 0.0018828595 0.0017352655 -0.0044178753
márquez -0.005032822 2.4605735e-05 0.0007710591 0.002254869 -0.0045368215 0.0014139505 0.0013132438 -0.0048838546 0.0021998063 -0.0015966098 -3.5043417e-05 -0.0018350919 -0.0026094387 0.0021385613 0.00060270284 -0.00074490963 -0.0030770393 0.0008587661 0.000866972 -0.0031663657 0.0023959877 -0.0012086179 -0.00068776874 -0.0010632343 -0.0034142644 0.0036191433 0.004033068 0.0049114646 -0.0030584978 -0.003379499 -0.0026733913 0.0041387253 -0.0003739096 0.0020109192 0.00041550928 0.0048661293 -0.003732749 0.0010332601 0.004626887 -4.2858537e-06 0.003798436 0.00069852785 0.00271509 0.0028422866 0.0036528104 -0.0045274054 -0.0015511229 0.0032581375 0.0029524164 -0.0042990283 -0.0021825985 0.002242708 0.002942637 0.0016218536 0.0020212594 0.0045098877 0.0020975457 0.0032295708 -0.004449934 -0.0024597289 -0.0029602628 0.0019697822 -0.0021913429 -0.0008379515 -0.0009695696 0.00058636547 -0.003281061 0.0004407069 -0.0036130482 0.0026049686 0.0047391364 0.001992947 -0.0035404884 -0.0013695634 -0.0016247872 -0.0019477329 0.00075669884 -0.0036031792 0.0039190254 0.00034200258 -0.00094865804 0.0016451998 0.0004826622 -0.0006563738 -0.0029966743 -0.0034950462 -0.00055859616 0.003568673 0.0016083599 0.00049453665 -0.0038891532 0.0033905413 0.0031989438 -0.00288544 0.002506642 -0.0018653151 -0.0017693727 -0.0026947714 -0.0028012043 0.000818645
david -0.00413842 0.0010288735 -0.001671095 -0.0047559 -0.00096561085 -0.0048836446 -0.00078905583 0.002615176 -0.0010838504 -0.0012455854 -0.000683211 0.0048985346 0.0044676038 -0.003989954 -0.0006831536 0.0037922978 -0.0046128775 0.004330945 0.002510729 0.0028886474 -0.0044303928 -0.0020620034 -0.0026083789 -0.0049721287 0.00026451316 -0.004602244 -0.0031534093 -0.004608764 -0.0042874985 0.0038712996 -0.0026359162 0.004154028 -0.0026969134 -0.0025856374 -0.0019913162 0.0015864571 -0.004476901 0.0027417543 -0.0008771955 0.0002877573 0.00091917824 -0.003365747 0.0031721692 -0.002766358 -0.00070925726 -0.0028971916 0.0026630093 -0.0044514793 0.004952868 0.0029283413 -0.0038920762 0.0026758672 0.0010467231 0.0033684366 0.0038027803 -0.0034851376 0.00077820814 0.002658856 -0.00056645647 -3.0076682e-05 0.0006659796 0.00014047629 -0.0011005594 -0.0033179875 0.004080777 0.0045288666 -0.0042724432 0.004836823 0.0026359528 -0.0043559303 -0.002133909 0.0025731418 -0.004574512 -0.0029892898 0.00069101044 0.00026966084 -0.0014071075 -0.003915519 0.0027342685 -0.0016556274 -0.0035570478 0.0004167039 0.002913341 -0.002686778 -2.3103597e-05 0.0011095436 -0.004910878 0.0038382497 0.0018830486 0.003448701 0.0020507372 -0.003637149 -0.004039882 0.0038572631 -0.003891587 -0.001080171 0.0031128572 0.0010146194 0.0047048503 -0.0023620245
juan -0.0027064553 0.0035695217 -0.001045478 0.0027562627 -0.002625559 0.0014956453 -0.0017800065 0.0006029785 -0.003601536 0.002292901 0.00014661392 -0.0021870453 -0.0018301934 -0.0029814804 -0.0033948605 0.0040494613 0.0013682157 -0.0040453384 0.0012630456 -0.004107352 -0.0033155119 0.0030090695 0.0036780874 0.0011078534 -0.0018251097 -0.0034309274 0.0008268887 -0.0039346754 0.0006693009 0.0013822872 -0.0004939644 0.0015075289 0.0038282834 -0.0035810932 -0.0005344175 -0.0007063977 -0.00050979166 -0.00493305 -0.00052945473 -0.0010364817 -0.0006810735 0.0027524147 -0.004836135 0.0013823878 -0.00058622874 -0.0008093023 1.3679843e-05 0.0023725764 0.0019378855 0.004007277 0.0018149207 -0.0041831913 -0.0023690849 -0.0020785814 0.0002247466 -0.0010027572 -0.0026544135 0.0016965545 -0.004044891 -0.00203704 0.0043420875 0.0019011734 -0.0021837426 -0.0009660982 0.002661698 -0.0039643627 -0.0016936547 0.0034844691 -0.0024520608 0.0020795935 0.0022784804 0.0035199635 0.0049669296 -0.001852195 0.00072630437 0.002030119 0.0011656809 -0.0044584265 0.0036326319 -0.0020343054 -0.0016089402 0.0005927609 0.00039405804 -0.0011543329 -0.0034129345 -0.0035381971 0.003322401 -0.0044045774 -0.003787693 -0.004884227 -0.0020584958 -0.0024290527 0.0048756683 0.0020448596 -0.00045487142 -0.0046539553 0.0018665349 -0.0041639097 0.0015789851 0.0040193056
rosa 0.0032587259 0.0012883163 0.0018077793 -0.003033325 -0.0034108446 0.0018227531 0.0045955777 -0.0032683236 0.004290102 0.0013417418 0.0022180914 0.0014228543 -0.0036361676 -0.0027452454 0.004099664 -0.0013584361 0.004114136 -0.0049721007 -0.004608651 -0.00023355159 0.0013892628 -0.0041157547 -0.003578083 0.0025047502 0.0033645646 -0.003244514 -0.0031314467 -0.0005446524 -0.001464044 -0.0015344409 0.0029351502 -0.0027156242 -0.0029917513 -0.00045719426 -0.0030459852 0.0029155784 -0.00060501293 0.0028293966 -0.0019845394 -0.004522266 0.0011825562 -0.0015086478 4.9725836e-06 -0.0023656986 -0.004014964 0.00042128688 0.0014224998 -0.00058528787 -0.002394566 0.0035181886 -0.0018704085 -0.0016608346 -0.0013631801 0.0026676587 0.0016289596 0.002302488 0.00087976165 -0.0040069968 -0.0010373625 -9.562501e-05 0.0006654453 0.0018605329 0.0009999321 -0.0023206105 0.0047037196 0.0010648395 0.0019120116 -0.0010968308 -0.001207225 -0.0036471044 0.0013608576 -0.0035887456 -0.00038272413 0.0024284287 -0.00071111665 -0.003748222 0.0046555614 -0.0037951854 -0.0005270782 -0.002173018 -0.0008679493 -0.00085339614 -0.0035133231 -0.0045638573 0.0007275275 -0.0011311952 -0.003834753 0.0037475452 0.0039890115 -0.0041506756 0.0027683536 0.0033467677 -0.0010402839 -0.0041510724 0.0027488847 0.0011867088 0.002636756 -0.0012064656 -0.0029432555 -0.0035012525
nacho -0.0027429822 -0.0041700797 -0.0043335697 0.00072527985 0.00048184925 0.0039670384 0.00011637712 0.0025908337 -0.00082847814 0.0019532738 -0.0038857583 -0.00022309282 -0.0044855545 -0.0017532817 0.000868694 0.0015788691 0.0006506964 0.0036686792 -0.0020666432 -0.0018758187 0.0032957392 0.0024909072 -0.0030216337 -0.0028473835 -0.0027765841 0.0009085405 0.0010248276 -0.0034959407 0.0033559136 0.0038734893 0.0031215681 -0.0041202633 -0.0038728553 -0.0027241406 0.00062777667 0.0014322465 0.004846163 0.004033086 -0.00060825184 0.0023909756 -0.005003469 0.001289123 -0.0022985977 0.00083970255 -6.306107e-05 -0.0041562147 0.00310301 -0.0031194384 -0.0024825216 -0.004805751 -0.0022805836 0.0012273651 0.0034201986 -0.00066749693 0.00035110512 0.0027878208 -0.0036980784 -0.0033085337 0.0013303388 -0.00071379385 0.0017017123 0.00059265905 -0.0023122104 0.001908299 0.00066763244 -0.00240684 0.0016384943 0.0019762574 -0.0035232485 0.0033270917 0.004750483 0.00426149 -0.0043097157 0.0010747784 0.0013535334 0.0031627258 -0.0024924793 0.004181523 -0.004381401 0.0027026688 0.00018759398 0.0017915547 0.0042709303 -0.0030683929 0.004700697 0.0020414435 -9.94595e-05 -0.0044923765 0.0010812058 -0.0033363507 -0.00050156325 0.0043158988 -0.0049605183 0.0026040536 0.0028238385 0.003271188 -0.0029886118 -0.000605164 0.0012318274 0.0032566842
eva -0.0005064408 -0.0011410548 -0.0007014936 -0.0011498238 0.000764452 -0.004968216 -0.0035071387 0.0024191986 0.00093569444 -0.0031657333 -0.0018486624 -0.0046626558 -0.004634701 0.0019475512 -0.0038285113 -0.00053412974 0.0033800164 -0.0019000247 -9.791547e-05 0.0025521996 0.0023920648 -0.0012091638 -0.0020065967 0.0032909822 -0.0030898598 -0.0048074233 0.001582744 -0.0014272737 0.00022490868 -0.0041378797 0.00074804993 0.0046502776 0.0043838564 0.0021434356 -0.0031316935 -0.003027807 -0.004487413 0.0031979703 -0.0012196212 0.002429227 -0.0046285368 -0.0019288221 -0.0033480201 0.0016578749 -0.005004556 0.0022397365 -0.0036592532 -0.0010958933 -0.0015896219 -0.004227363 0.00017868677 0.0010845214 -0.0018853864 -0.0011819857 0.0033260984 -0.0040712645 -0.00026778202 -0.0003586807 0.0028481125 -0.0041871173 -0.0031289076 -0.0015258623 0.00063100486 -0.003915593 0.0018373826 -0.0031622082 -0.00091103086 0.00248914 0.0038762323 -0.0014350394 -0.0011770021 -0.0033051267 0.0023527166 0.0041760346 -0.0034502149 -0.00095998455 0.003924686 -0.0031960823 -0.0038767674 -0.002949102 -0.0033116299 -0.001735284 -0.0013658695 0.003925961 -0.004723404 0.0031077724 0.004513256 -0.0010266656 -0.001977532 -0.002646318 0.0038972558 0.0026144162 -0.004735288 0.0023332266 0.0024235833 -0.0018237551 0.003659815 0.0028388628 -0.00056137337 -0.004725392
enrique -0.0028132373 -5.99998e-05 0.0040943157 0.002031415 -0.0046245162 0.00140263 0.0048322314 0.00067188236 0.004888112 0.0025718822 0.0040219766 0.0020232487 0.00279564 -0.002981713 0.0002492667 0.0018345647 0.004302861 -0.0038883325 -0.004806131 -0.002025057 0.0009727664 0.00069638796 -0.003826005 -0.0012003977 0.0042989743 0.002649203 -0.0034807976 -0.0037712692 8.953733e-05 0.0023941298 -0.0006933196 -0.003518294 -0.0010092143 -0.00069494743 0.00021863087 -0.004652723 -0.0048426227 -0.0016794925 0.0038767399 0.0029070664 -0.0046189916 -0.00030988926 0.0010660618 0.004691147 -0.00090183166 0.0008407773 0.002571405 -0.0011552012 0.0015116502 0.0039432207 -0.002645441 0.004531387 -0.0027198554 -0.0004557961 -0.00031133663 0.002251395 0.00151881 0.0041287523 0.00076211535 -9.97926e-05 -0.0035615508 -0.0042193034 0.0019994092 -0.0028308895 -0.0004788879 -0.0010299577 0.0019557574 -0.0049790405 0.0027301218 0.0013763126 0.0021894292 0.0011332459 0.00028608477 -0.0012328962 -0.0001514965 -0.0031978034 0.003942885 0.0046014166 0.0034421377 -0.002485591 -0.00044397337 -0.0044468334 -0.0032772564 0.0020193616 -0.0037143666 -0.0011977021 -0.004928864 0.004120549 -0.002583208 0.0004842241 0.0039011405 0.0018193029 0.0035082332 0.0048905634 -0.003433674 0.003814811 0.002731927 0.0044304044 0.000352598 0.0006586282
laura 0.004765659 -0.0042186812 0.002276907 0.0014018202 -0.0042591975 -0.0020659305 0.0018871522 -0.0005749167 -0.00050847617 -0.0018360564 -0.0005333521 0.0049294736 0.002259863 -0.00043724268 0.0021618167 -0.0019040493 -0.00080905587 0.0031944972 0.0033979584 -0.00449826 0.003083808 -0.0027850848 -0.0032334658 -0.0043784385 0.0013091943 0.0020116204 0.0045697666 -0.0005980423 -0.0018266363 0.001294173 -0.0023231425 -0.0037862977 -0.0030472465 0.0043361774 -7.64896e-06 -0.004774632 0.003064676 -0.004713906 0.0022908084 0.0045006797 0.0010699962 -0.0031105897 -0.0041988906 0.00043133812 0.0027416938 -0.0038810628 -0.0049110707 -0.0033430469 0.00053013756 0.0026324387 -0.00078656187 0.0043451316 -0.0018410411 -0.0023354064 0.0018899206 -0.003503487 -0.002941596 -0.0016079444 0.0009994344 0.0026287008 0.0015350295 -0.0023439184 -0.0029228653 -0.0010013599 0.0009855061 -0.002670576 0.00045000485 0.0014290427 -0.0019291915 -0.0044613667 0.0044689695 0.0021984056 0.0039829365 0.0030369887 0.0018956228 -0.004551854 -0.0016512913 0.00022683312 0.00047398964 -0.0018229387 -0.0037922468 -0.00488556 -0.0021279114 0.0003235694 0.00059034023 0.002879421 -0.0012912408 -0.0011988415 -0.0002561297 -0.0024988865 0.0018544166 0.0028212578 0.0015510467 0.0037814002 0.0028315256 0.0043621776 0.0030865965 0.0038999552 -0.0043180753 0.0037944065
entrevista -0.00075560977 -0.004025921 0.0047854246 0.0020098286 -0.0024421453 -0.0014224823 0.0043020267 0.0010157422 0.004692289 -0.004714515 0.0037544568 -0.0034486111 -0.0048810486 -0.002927924 -0.0030031758 -0.0012526495 0.002944362 0.0032135188 -0.0023380145 -0.002436271 0.0031226997 0.001077435 0.0045142965 0.0009092035 -0.0005289842 -0.0035524308 -0.0014074735 0.0017561943 -0.0016810755 0.0040815873 0.00404483 0.004912394 0.0006608155 8.664575e-05 0.0046790396 -0.0018146099 0.004071938 -0.001892003 -0.002568023 -0.0035930092 -0.00081048365 0.0013315032 -0.0045251474 0.0030232922 -0.0045505133 0.0021197891 0.0015129123 -0.0020439557 0.004784919 0.004274775 -0.004643923 0.004079072 -0.0038395163 -0.0017694383 -0.0028442577 -0.0034278384 0.0011468503 -0.0026999244 0.002460127 -0.00082339445 -0.0029147463 -0.00499659 0.00019563794 0.00056515017 -0.0012204245 0.0011968551 -0.00012315025 0.0020404789 -0.0024420447 -0.0037768898 0.0044701598 0.0036014293 -0.0034655032 0.0016984022 0.0036038242 0.00063856685 0.0030718269 0.00054653623 0.003881318 0.0042780475 -0.0017953019 -0.0017463461 0.004826868 -0.0017093371 -0.004293419 -0.002572658 -0.0034088148 -0.0004784303 -0.00090199424 0.004155711 -0.0021835875 0.00021565532 0.0045369985 -0.0006351255 0.00497063 0.0012333893 -0.00046370566 -0.0026811706 0.00014258134 0.001572103
españa -0.0024097667 0.0033978545 0.0026586154 -0.001576627 -0.0047704214 -0.0044674953 -0.0020666802 0.0045714546 -0.0030339088 -0.0023875819 0.0044038543 -2.4633896e-06 -0.004077302 -0.004064604 -0.0021065234 -0.0037988839 0.000167307 -0.0017704888 -0.0041562887 -0.0013905048 -0.0014681222 -0.0036275322 -0.003080377 -0.00018739094 -0.002328042 -0.0015659359 -0.0024569966 0.003385733 0.0046038 0.0042450484 0.0003237039 -0.00439959 -0.0045771017 -0.002139175 -0.0020982125 -0.0030492495 -0.0021685956 -0.0010742116 -0.0028107348 -0.0018831318 0.0011453795 -7.760416e-05 -0.0036810199 -0.0045832936 0.002589876 -0.0036195698 0.004273496 0.0015573679 -0.004973306 0.0010723573 0.004647123 0.003642741 0.0016594122 -0.00030062557 -0.0014159367 0.0044107186 -0.001995894 0.0035983631 0.002903263 0.0026290058 -0.004564122 -7.1795475e-05 -0.0044995295 0.004307621 0.0020973622 0.0027558524 -0.002202051 0.0028709746 0.004395365 -0.004103204 0.0017762297 0.003501553 0.002275368 -0.0042207153 0.0017860208 0.001270551 0.0009011991 -0.004782971 0.0018715337 -0.0045574284 -0.002189937 0.004896445 -0.0024551682 -0.0043288693 0.0020606257 0.00124271 -0.00093051285 -0.0046528266 -0.0035869123 -0.002180119 -0.002580572 4.5661884e-05 -0.0033953204 -0.00047235936 -0.0003197106 -0.002610465 0.002164289 -0.0009400418 -0.0025608067 -0.0035855197
pilar -0.002765503 -0.0036699164 0.004231158 0.004293919 0.0048576337 -0.0018434477 0.0011512614 0.0014249053 -0.0049875844 -0.0010353393 0.00027719306 -0.0034434693 -0.0012964058 0.000613815 0.004673042 0.0046064532 -0.0011275231 0.00032220682 -7.720693e-05 0.001279719 -0.0025421227 0.0042426335 -0.0013089121 0.0030903735 0.0048326594 -0.0049094767 0.0017979301 0.0024293768 -0.0024209463 -0.0039178138 0.0011503982 -0.0003368348 -0.0043761674 -0.0048102713 -0.0010561183 -0.004084353 0.0028089078 -0.004942355 0.0016200688 -0.0034846643 0.0020283014 0.0021480098 0.00048608182 0.0030632166 -0.0011974063 -0.0033455666 -0.0018655059 -0.0032374565 0.0048804963 0.0023763403 0.0020588965 -0.004358381 -0.0016745427 -0.0009394058 -0.003240658 -0.00037935525 0.00079372333 0.0016288471 -0.0022508265 0.0030973477 0.00486753 0.00085035496 0.0049449857 -0.0043976116 -0.0037675153 -0.0041788183 -0.0023202132 -0.0011963317 -0.0015522506 0.0017933773 -0.004300404 -0.004754309 -0.00089209573 -0.003731713 -0.0020433287 -0.0032546078 0.002706086 0.0021433297 0.0044809547 -0.0041414835 0.00012939287 -0.004358912 -0.004003151 0.00267342 -6.5274357e-06 0.002110193 0.0036718273 -0.001373799 -0.0006921689 -0.0007183326 -0.0024794233 -0.0005937434 0.00485017 0.002600308 -0.0001339739 -0.0025185836 8.31453e-06 0.004890677 0.0049133305 0.0015610327
grandes -0.0041712644 -0.00048688226 0.0042511425 0.0045198253 0.002350913 0.00025017967 -0.0026033667 -0.004212984 0.0024213532 0.0027290226 -9.1133195e-05 -0.00093938847 -0.00029901683 -0.0044282135 -0.00215457 0.003311981 -0.00485218 -0.004991957 -8.7953755e-05 0.0020425802 0.0011238547 0.0020519346 0.004002768 0.0005672887 0.003114773 -0.0024352393 -0.002464118 0.002412136 0.001426769 0.0012102308 0.004748024 0.000917089 0.0039284998 0.00050914567 0.004897156 -0.0011089293 -0.0026471242 -0.0038549644 0.003996386 0.0028122144 0.002907141 -0.000989692 0.00045931648 0.0007771406 0.004877618 0.0032553228 0.004782638 -0.0030086997 -0.00083836523 -0.002202234 -0.0008317566 -0.0049227844 -0.0037163685 -0.00030539717 -0.003123834 -0.004757378 0.0034600624 0.0043473393 0.00084730564 0.0049247914 0.00317164 -0.0032282488 4.2623215e-05 -0.0031831113 -0.0039701113 -0.004920116 5.184287e-05 -0.0038389133 0.003568901 -0.0039953743 -0.0037178271 -0.0020160296 -0.0018535771 -0.0016674309 -0.00283309 0.0040075225 -0.00044247074 -0.00062570634 -0.0015870369 -0.004453049 -0.0028670477 -2.7249e-05 0.0024959324 -0.003612032 -0.0016969503 0.0012016911 0.0035773488 0.00025409114 0.0035672553 0.0014812078 0.0037917101 0.0042080674 0.0005626886 0.0023991687 0.00092780235 0.0017012754 0.0025750238 -0.004417571 -0.0043576476 0.00088507426
vida 0.00017693778 0.004620981 0.00480964 -0.0016850196 0.0035389683 -0.0026214223 -0.0019708204 -0.00036929554 -0.0013162742 -0.0038787585 -0.0031815867 0.0045082937 0.002721625 0.0028898746 -0.0015140173 0.00012359941 0.004621373 0.0020916904 0.0010612513 0.0016606889 0.0037340163 0.0018813194 0.0045565492 0.0021119013 0.0015008094 -0.0027832172 -0.0032907194 0.002856563 0.0016298064 -0.0013340239 -0.0028096747 -0.002555418 0.0048042424 0.001208746 0.004739129 0.003965329 -0.001051713 0.0034284054 -0.0023981351 0.0009383666 -0.0038539723 0.0045076776 0.0036857133 -0.0026940703 -0.0012797334 0.0005976791 -0.0004844152 -0.0009121204 -0.0037769633 0.0049817096 -0.0044630673 0.00013456865 -0.004790919 0.004241444 -0.0011461155 0.00097517774 0.004640828 -0.0022605131 -0.00032919596 0.004313717 -0.001391755 0.0014695942 0.00409819 -0.0009638677 -0.0015113003 -0.0011183433 0.003620484 0.0036675378 -0.0041793515 0.0023981202 0.0008466936 -0.0047413916 -0.0036490862 0.0049346825 -0.00058192183 -0.0047140466 -0.0044455086 -0.0012271227 -0.0023130316 0.0028598222 -0.0028178454 0.002457121 0.002610943 -0.0035392218 -0.001628495 0.0019439525 -0.002029628 0.0009263787 -0.0027363717 0.0038514256 -0.0010894645 -0.0006852276 -0.0027420898 0.003818726 0.002410387 -0.001337504 -0.0028658698 -6.5350636e-05 0.0038855223 -0.0017325085
cómico 0.0019311083 0.0023984523 -0.0007650488 -0.004435024 0.0005144702 -0.0006849118 -0.004124423 0.003246601 0.0007824963 -0.0024724498 0.0032653215 0.00027906924 0.00361002 1.9914292e-05 -0.0028828252 -0.0029330454 0.0044216984 0.0005677766 -0.0021680277 5.0605727e-06 -0.004319605 0.004083065 -0.0033477414 -0.0037013104 0.0036167058 -0.0022682336 0.0037407163 0.0025261862 0.0022826584 0.0042038723 -0.0049725617 -0.0028465118 0.0011314036 -0.00060667534 -0.0029615762 0.002484058 0.00063082174 -0.0033978252 0.0029852686 0.0029917343 0.0047220765 0.004730271 -0.002964867 0.0011119364 -0.004411782 -0.0049493457 -0.0038594939 0.0043152887 0.0046316693 -0.0034309772 -0.0033089416 0.001327632 0.0048882184 0.0034634187 0.0023921467 0.0038619882 -0.0013499643 -0.0016497222 0.000947815 0.0020852378 0.00421967 -0.003239484 0.0034414586 -0.0041171256 -0.004002827 -0.0006053653 -0.0044664307 -0.0015747579 0.001195136 0.0023661174 -0.003300902 0.0003093309 -0.0022568998 0.0018611212 0.00395177 -0.0009877477 -0.0005551294 -0.0031941186 0.0018377174 0.0045250156 -0.003972067 0.0018948248 -0.0023363882 0.00080892025 -0.0044789733 -0.004809866 -0.0013931777 -0.00033213236 0.0010907141 0.0024138736 0.0036613122 0.0043729832 0.0039406605 0.0015454543 0.0013281605 0.0007921957 -0.004923639 4.1058333e-06 -0.00014707689 0.0012994979
romero 0.002738771 0.0011087478 -0.0038015728 0.004897542 0.0018543777 -0.00019936089 0.0026565753 -0.0047956 0.0009476451 -0.0036924265 0.002399451 0.0002852461 -0.00018930332 0.0024160512 -0.0029773014 -0.004446758 0.004673533 -0.0011686317 -0.002187909 -0.0025583208 -0.0041637938 -0.005004417 0.003951425 0.003488269 -0.0010809334 -0.0021875254 0.002813951 -0.0012926551 0.004333748 -0.002253832 0.0038911982 -0.005019198 -0.0023205983 0.0039130133 -0.004947723 -0.00101872 -0.0012215564 -7.426261e-05 -0.0031068458 0.0041621374 -0.0033252526 -0.001378978 0.004542983 -0.0012002019 0.0008566912 0.0045083975 0.0010786119 0.0006119071 0.0028430629 -0.0014276915 -0.0011231963 5.785585e-05 0.00067177013 0.0009834305 -0.0049154386 -0.0018973759 0.0022686983 -0.0049131596 -0.00097362587 0.0041969004 0.0008786464 9.823763e-05 0.0023221609 0.0025938984 -0.0020071636 0.0031134672 0.0018979489 -0.0042518605 0.0048231143 -0.0013416697 -0.0017049529 0.001877674 0.000122251 0.0036816916 0.00399103 0.0010333518 0.004066245 0.0031219565 -0.0042738137 0.0017920204 -0.0025870274 0.00089273695 0.0015264427 0.0046053417 -0.0047549433 0.002135299 -0.0041087405 -0.0027366339 -0.00015126733 0.0014324851 0.004518344 0.0029008314 -0.004278323 0.0012175746 0.00498493 0.003206715 -0.0009908633 0.0030155864 -0.001548305 -0.0043524625
dani 0.0032991145 0.00050094584 -0.002141649 -0.0030766837 0.0007490513 3.0422238e-05 0.0043686954 0.0010554017 0.0020889135 -0.0028213488 0.0028206592 0.004359387 0.0042542676 -0.0037527927 0.00017385902 -5.6072487e-05 0.0029782394 -0.0031894823 0.0017956354 0.0026022205 -0.0002853961 0.002190075 -0.004854074 -0.0006561959 0.00013262892 0.004900373 -0.004377776 -0.0043026325 -0.0014249602 0.00050331035 -0.0025658149 0.0008727634 -0.0016668916 -0.002701773 0.0030686879 -0.004835418 0.0038191997 0.0034678217 0.0037068685 -0.0009817381 -0.0014379584 -0.0011493107 0.0007492005 0.0045498502 -0.0018704846 -0.0011956813 -0.0008731889 0.0037725035 0.00020595535 -0.004069436 0.0035575663 -0.0033882624 -0.0006579566 -0.0010610336 0.00067535165 0.00014421357 -0.0009767604 -0.0040401514 -0.00263468 -0.0032659243 0.0046601268 -0.0043172063 -0.0013786207 0.0037988152 0.0010113858 0.0034532866 -0.0034191033 0.0027934536 -0.0008590348 8.596663e-05 0.00042569023 -0.0022670762 -0.004596024 0.00305684 -0.00032638517 0.002925902 0.0022997034 0.0030610978 -0.0025396938 -0.002568056 0.0037115503 -0.003712313 -0.0012467894 -0.0012985808 -0.0044789063 -0.0027658765 0.00032351285 0.0041654943 -0.0029243536 0.00440521 0.0037993877 0.004681694 -0.0020752056 -0.0013739581 -0.0026664191 0.0031079925 0.0032674065 -0.0021738799 -0.0049760425 0.0017078434
bárez -0.0025175046 -0.004515681 0.0048914454 0.0013413335 -0.0010376183 -0.0021804776 -0.0028246075 0.0005807484 0.0007722325 -0.0007059377 -0.0016619626 -0.00042940155 -0.0006514483 -0.002581341 0.0022316694 -0.004565288 0.0017792457 -0.0016623489 0.0043551787 0.0033153605 -0.0047999434 -0.0036064414 -0.0048425253 -0.0044919164 0.0006851477 -0.003164561 0.0023470435 -0.00078580197 0.0016075205 -0.00070346147 0.0042109974 -0.004628941 0.00060457457 0.004894192 -0.0046523395 -0.0023152647 0.0017060256 0.0027460156 0.0032646116 0.0033542018 -0.0039683497 0.0030071153 0.00331335 0.0014107628 0.0016814086 -0.002034334 -0.0030580184 0.00079715496 -0.0010937455 0.0005386912 0.0047017527 -0.004565554 0.0023017456 0.0021060773 0.0020280748 0.000559176 -0.0042447946 0.0011520699 -0.0027837402 -0.004674732 -0.0003345627 -0.0009801531 0.0027453518 0.0030628727 0.0038720884 0.0035916006 -0.003125583 0.00044986643 6.745011e-05 0.0039906106 0.004385967 -0.0022167368 -0.0026671593 0.0021319224 -2.0144735e-05 0.0016401492 -0.0042253966 0.000970662 0.0032725143 -0.004931591 0.0035775069 0.001041248 -0.0024220147 0.0013390093 -0.0018440023 0.0011455537 0.0017344832 -0.004868976 -0.0005520494 0.004001142 0.0015266943 -0.0027071654 -0.0007183927 -0.001871164 -0.0018339865 0.0017112421 0.004557281 0.0034775424 -0.002153739 -0.0003118983
alberto -0.00075216085 -0.0017336773 -0.0019203783 -0.0011536523 0.00071224925 0.0049090376 0.0039557703 -0.0018175625 -0.0015005445 -0.0013863485 0.0045397747 0.0037342692 0.0033823694 0.0031344863 0.00032113245 -0.0048650396 0.0032359033 0.0019090972 0.0016921862 0.0019317084 0.0028556366 0.0005858445 0.004271231 -9.013685e-05 -0.0011862692 -0.0021780557 -0.0010360312 -0.0016732713 0.0031927046 -0.0034407715 0.003147361 -0.0009084482 -0.0016263719 0.0031484829 -5.777819e-05 0.003356912 -0.0018605134 -0.002629394 -6.75431e-05 0.00090093975 -0.004419025 -0.000747229 0.0010893107 0.00010128527 -1.9372452e-05 0.00472119 0.003232833 -0.0049618776 -0.00071707775 0.0016912511 0.0012023464 -0.0021385427 0.002802397 -0.0040461416 -0.004446872 0.0028992477 0.002484711 0.0008829494 0.001276461 0.0025092782 -0.0028309599 0.003723746 -0.0049797795 -0.0045288047 -0.004664334 0.0019062943 -0.0039786333 -0.0036265804 -0.0015000668 0.002119613 0.0047627944 -0.0018965872 -0.003451435 0.00087425404 0.00355617 -0.002237473 -0.004351056 0.0015866887 0.0031206624 0.0006132699 0.0024273414 -0.0016527759 0.0012880857 0.002992566 -0.0025131304 -0.0028114999 0.00481367 -0.00022136653 0.0042141564 -0.00021769883 0.0012232213 0.00018667593 0.0024019983 -0.004729794 0.0025151747 -0.0043141046 -0.004726338 9.2617694e-05 0.00081788714 -0.0047065318
casado -0.0049311677 -0.0038856172 0.0029449975 0.0030346806 -0.0014113808 0.002644045 0.0007697192 -0.003148689 -0.0047227875 0.004733955 -0.00015476694 0.004385679 -0.0010095054 -0.0031505628 0.0033734068 -0.002673722 -0.0015322226 -0.00012109476 -0.0010218978 -0.0022942135 0.003727503 -0.004612886 -0.002093918 0.0025976812 0.0012383425 0.0029407085 0.00031379407 0.003182103 0.0046862755 0.0021294295 0.0011974436 0.0029895627 0.0014221477 -0.0046564937 -0.002805254 -0.0007562487 0.004244869 -0.00063069235 0.0042479825 0.0005902597 0.0005966106 -0.00209749 0.0001944078 -0.0025919117 0.0026413775 -0.0018426478 -0.004477469 -0.0025387672 0.001450836 0.003952163 -0.003003539 0.0034263306 0.004713444 -0.0041444595 -0.004990518 2.646102e-05 -0.0020601864 0.0030728139 0.0039312746 0.0008202787 0.0029379905 -0.0018529401 -0.001776729 -0.00068623485 -0.0021181372 0.0017551286 0.0022821827 0.0031691517 0.0001368718 -0.00024334149 0.00157281 -0.001434511 0.0047222483 0.0027188505 -0.003562397 -0.0024552327 -0.0011025667 -0.0020949077 0.0038983468 0.0044341763 0.0028749413 -0.0029161472 -0.0042269616 -0.00023121122 0.0034302329 0.0046239523 -4.9598188e-05 -0.0005880661 -0.0022589553 0.0049483986 0.002252854 0.00010879868 0.0028308162 -0.003168284 0.0014552994 0.0045770193 -0.0010585303 -0.003940886 0.002649902 0.0025885152
año 0.000101461 0.0011301867 0.0030580407 0.00039991766 0.0008527939 0.00391287 -0.0037142897 0.0019907171 -0.004593853 -0.002260382 -0.0031495753 0.0009313332 -0.0038510857 0.004967711 -0.00068523665 0.004359938 0.0038303512 0.0039368016 -0.004553456 -0.0020696667 0.0043685865 -0.0030667149 0.0032902265 -0.0013064861 0.0035769094 0.0022103419 0.00018289495 0.001983237 -0.0041028652 0.0026993656 0.0012221044 -0.0029447426 0.00025491105 -0.00048301867 -0.004577379 0.0011401554 -0.0005061756 0.001551722 -9.39421e-06 0.0038693093 0.0009114889 -0.00082657085 -0.002820763 0.00079539575 0.0017430682 -0.004342008 -0.00023579603 -0.0037568493 -0.0032194105 -0.0018657137 -0.0011938779 -0.0018532856 -0.0014058268 0.000663507 0.0039415658 -0.004908127 -0.0009961507 0.0033824886 -0.0022464767 0.00033698062 0.0025730426 0.0026801217 0.0020475453 0.0013063685 -0.0041819755 -0.003171798 0.0003703426 0.0042808023 0.002597916 -0.0014802545 0.0029067616 -0.0022439049 -0.0006096709 0.0012204784 -0.004825493 0.0035079066 0.0027441466 -0.000717863 0.0023492174 -0.0031897777 -0.001175693 -0.0017141959 -0.003350696 0.0042895377 -0.003505388 -0.0014887087 0.0025436436 -0.0047187223 -0.00452225 -0.0023832845 0.0011499696 -0.0017804322 -0.00260653 -0.0015334032 0.004548354 -0.0002962431 -0.0032622034 -0.003420943 0.001982333 0.003961008
z 0.0014414797 -0.0018677176 -0.0013965593 0.003236401 0.0049591074 -0.0015420715 0.001269898 -0.0021118384 -0.0011388484 0.0014684963 -0.0003395022 -0.002871645 -0.004377781 -0.0003999628 0.002958034 -0.0024457255 -0.00014105997 -0.0011445124 0.0013710136 0.0009358461 0.0017714826 0.002965915 0.0019857397 0.00042184864 -0.0036936253 0.0027740623 -0.0044498234 -0.0036819712 0.004906504 0.0036104629 0.00066392263 0.0037283306 -0.0038039235 -0.00036563576 -0.0043634665 -0.0040992503 -0.0047399304 0.003803188 -6.4298845e-05 -0.0020550836 -0.0011117514 0.004422671 -0.0019252931 -2.2735263e-05 -0.004473822 -0.0028869216 -0.0045673633 0.00079406815 0.00064147275 0.0023772935 -0.00016408265 0.004613723 0.001990304 -0.0028908735 -7.911002e-06 0.00025347265 -0.004738409 -0.004766841 -0.004056751 -0.0037671353 -0.004703112 -0.00087194744 -0.00370198 0.0005133651 -0.0009781695 0.0023960988 0.0019431442 -0.003949783 0.0042207087 0.0020758861 -0.0036899925 -0.004924738 0.002989873 -0.0026022452 -0.001934052 -0.0027700437 0.004928438 0.0014656475 0.0034950858 -0.0013754788 -0.003157314 0.003207226 -0.0023447918 -0.0002179199 -0.0025287836 -0.0018794645 0.0031278625 0.0010471124 -0.0008044689 -0.00054928777 -0.0042383373 -0.0019694807 -0.0010103888 -0.004563546 -0.0037013039 0.0038282746 0.000241893 -0.0039528348 0.0033205897 -0.00297926
tenorio -0.002996939 0.0019128899 -0.003123038 -0.0014464363 0.00437244 0.0016346312 -0.00014868562 0.0044732518 -0.0012701356 0.004510592 0.0042430796 -0.0038588124 -0.0019871483 -0.002192782 -0.002133428 0.0015439421 -0.002100441 -0.00218017 -0.0037944543 0.0033269322 -0.00090767967 -0.0042652045 0.0018059873 0.00069966953 -0.0025131013 0.00057893427 -0.0030459485 0.000109976725 0.0026622561 -0.001136493 -0.0011206042 -0.0046947934 0.0035415683 -0.0013737143 -0.0036207996 0.0025765286 -0.004015371 -0.002514691 -0.0044655697 0.003970756 -0.0022348308 -0.0030765748 0.00399763 -0.0023814058 -0.00022540995 0.0010608692 -0.004560479 0.001295859 0.0015631468 0.00020310964 -0.0029594337 0.0038747618 0.0031013647 -0.004332976 -0.0037740858 0.004674151 -0.002924581 -0.0021766108 -0.0040310333 -0.00051059463 0.0011211616 0.0013284561 -0.0014248076 -0.0037969763 0.0018066401 0.0004592219 -0.0027067962 0.003518681 -0.0028740182 -0.0007911979 -0.0037572978 -0.001186408 0.0047100703 -0.0030379137 -0.0006332551 0.002287861 -0.002248209 0.0024674544 0.0022153542 0.0037348033 -0.0013131165 -0.0011502459 0.0025438105 -0.00030524388 0.0026016547 0.00057247444 -0.0041423813 0.004945663 0.004884112 0.0049307863 0.0026932843 -0.0035245903 -0.004603507 -0.0033151777 -0.0048946366 -0.000725374 -0.0016352318 -0.0030952953 -0.0046294816 -0.0031250685
sumozas 0.003739985 -0.0034624645 0.004862409 -0.004140812 -0.000143497 -0.0013019806 -9.377329e-05 -0.00457398 -0.004663983 0.0015922176 -0.0019580743 0.0005416602 0.0007048348 0.001589586 0.004860304 -0.0019364741 0.004911977 -4.5410467e-05 0.0023385843 0.004352891 0.0037128702 -0.0037005735 -0.0024984332 0.002557955 0.00272473 -0.0032222536 -0.00034216768 0.0013656302 -0.0011770822 -0.0048038904 4.581504e-05 0.0032388668 0.0038545611 0.0048346478 0.0014187457 -0.003388485 -0.0023445014 -0.00032866522 -0.0009868611 0.004075272 0.00096013874 -0.0011254019 0.004355821 0.00019604417 0.00014338626 0.00083528884 -0.00240358 0.0019305658 -0.00020892573 -0.0020616637 -0.00470681 0.0032592474 -0.001646647 -0.0049958965 -0.003456054 -0.004647948 -0.002222008 -0.0027154705 0.0013266972 0.004073795 -0.0004943249 -0.0017992434 0.0013238511 0.003546733 -0.0047570644 -0.00405052 0.002370902 -0.0003471041 0.0012547583 -0.0017413679 -0.004027132 -0.004598028 -0.0017092935 0.0046121357 -0.002638603 -0.0017173184 0.00446277 0.0015527715 0.0032254562 -0.004649443 -0.0040626326 0.004795583 0.0025877964 0.003743523 0.004204482 0.0026987318 -0.003941719 -0.0034758425 0.002938339 0.0017286055 -0.0006617063 -0.004623493 0.0035891721 0.0013233452 0.0045116907 0.003567728 0.0034935724 -0.0048980275 0.002113393 0.0026748716
álvarez -0.00011232583 0.0035836482 -0.004556346 -0.003938825 -0.001906207 0.00040866254 0.0026911944 0.0019524281 0.0015716074 -0.002491589 -0.0014979453 -0.0016926617 -0.0013712542 0.0009186912 0.0043002144 0.0044789873 0.003693682 -0.0040079365 0.003094288 -0.004012122 0.003440943 0.0023649596 -0.0017943397 -0.0038689126 -0.004737331 0.000855395 0.0039720717 -0.003441652 0.0048921923 0.0027784938 0.004852828 -0.001217815 -0.0030575069 0.0012861822 0.0026038012 -0.0020480622 -0.0030539166 -0.00063462596 -0.0014189521 0.0011763488 0.0021868988 0.0026416732 0.0014768726 7.911505e-05 -0.0041403845 0.00245041 0.0012377722 0.0037782225 0.0033918442 -0.004450298 -0.00076895405 0.0048922016 0.00021979836 0.0028402442 -0.0006787944 0.0017200293 0.0034478316 0.003610713 0.0015200687 -0.0013987406 0.0048647174 0.0016191816 -0.002832249 0.004257884 0.0033022354 0.004905579 0.0008224232 -0.004841027 -0.001258696 0.0035740011 0.004143741 0.0009184568 0.00440209 -0.0002762983 -0.0038280785 0.002459296 0.0012718319 -0.004718689 -0.00017888953 0.00048101525 -0.0012434025 -0.0023032138 0.003764442 -0.00082498457 -0.0039417474 -0.0011532165 0.0017448473 0.00420046 0.00014233911 -0.0030440993 0.0049270303 -0.0022549687 -0.00026686848 0.00094610994 0.0033840134 -0.003439672 0.003956276 -0.00093879894 0.0045874123 -0.0028027447
carmen 0.0048087593 -0.0039869873 0.001617455 0.0025628973 0.0029002405 0.004322253 -0.00035158327 0.0020330986 -0.00088120135 -0.002336582 0.0041406783 -0.000658021 -0.004083723 -0.002048314 -0.004090512 -0.0033978852 0.0021479449 0.0038791387 -0.00028149923 -0.0009245894 -0.0008156493 0.0021161966 0.0034545322 0.0027845295 0.00024159283 -0.0010757582 -0.001583026 0.0014389087 -0.0024665052 -0.0046060933 0.004314141 -6.603748e-05 0.00075903087 -0.0044172574 0.0015053165 0.00028669852 0.0022394164 0.0031236412 -0.0010916517 0.0020555775 0.0016306086 -0.004834572 0.0030760358 0.0027051019 -0.0034042126 0.00487432 0.001482383 0.0013349231 -0.0017630504 -0.0011060056 0.0012556153 -0.0025451093 0.00025081733 -0.002820793 0.0011006179 -0.0041484293 -0.0014041282 -0.002864863 -0.0049307975 0.00081538793 0.0015425632 0.0015772224 -0.00495303 -0.0039516324 0.0024074933 -0.002936289 0.0018122678 -0.0047501684 -0.00053226703 -0.0013874504 0.004540443 0.0044594356 -0.003169219 0.0012039248 -0.0022020275 0.0002909819 0.0021669192 0.0044808 0.004851758 -0.0023462982 0.0013955839 -0.0020561283 -0.0031714356 -0.0049714055 -0.004989285 0.004768399 -0.001520271 0.0038923498 -0.0026971723 -0.0010755443 0.0024707157 0.0015292128 -0.0002279474 -0.0033269718 -0.004248955 0.0010741814 -0.0036263778 -0.0046701063 -0.0024613275 0.0018711452
carolina 0.0036319697 0.0016495959 0.0040559145 0.0013826264 0.0037102045 -0.0025218152 -0.0029151067 -0.0040781084 0.0027322164 -0.0023320909 -0.00085901044 -0.002440892 -0.00011978345 -0.0047649313 0.0010871496 0.0046078404 -0.00068798935 0.0046247644 0.0035593365 0.0034500652 -0.0017336796 0.002752799 -0.0005610034 -0.0047776317 -0.000102854625 0.0012551815 -0.0021313047 -0.0041570514 -0.0011764739 -0.0028551524 0.002481005 -0.0022590435 0.004339446 0.002540232 0.0018877094 0.002605269 -0.0043658894 -0.0037216898 0.001033677 -0.003800237 0.0018586114 -0.0023536815 0.0047508534 0.002721458 -0.0015457318 -0.004239186 0.0039598844 -0.002295941 0.004331793 -0.0033304994 -0.0049846913 -0.0018752489 0.0029146688 -0.00012998744 0.0048896195 -0.0035242287 -0.0023412677 0.001903274 -0.0011574421 -0.002195011 0.004987938 0.004025864 -0.0045820144 -0.0049678483 -0.00039602068 0.0043680645 -0.00081631547 -0.004579265 -0.00078474754 0.0039375466 0.0024623957 0.0004045329 -0.0027672302 0.000154066 -0.000946617 0.0044514243 0.003511345 -0.0044770315 -0.004114209 -0.0014648009 0.0004150057 -0.0027608853 -0.0010111047 -0.0001397487 -0.002806965 -0.003716845 -0.002218274 0.003865892 0.003852613 0.0011785573 0.0024087839 0.0012602251 -0.0011771125 -0.003949432 -0.004303616 -0.002775859 -0.004654934 -0.0042812317 0.001523012 -0.0033302482
fernando 0.0039494713 -0.0011243194 0.0044793086 0.00029699467 -0.0049499907 0.0039739064 -0.0020696537 -0.0031805448 0.004919737 0.0010077233 0.0011593899 -0.0016099917 0.0026657637 -0.0026502262 -0.00065549137 0.0044727796 0.0034850454 0.00083208876 -0.002417234 0.0029053323 0.0047455775 -0.0014406472 0.00024404844 0.0016965781 -0.001431999 -0.0017913537 -0.0012132579 -0.0047128797 -0.0046581263 0.0019847273 0.0029635376 0.0018381889 -0.0022871448 -0.0025119714 0.0040030293 0.000809542 -0.001345876 0.0035386812 0.00038508943 -0.003311053 0.00025283155 0.0046619116 -0.0009965674 -0.0035592664 0.00041707704 0.0025062554 0.00022071159 -0.003945176 -0.00204838 0.0034656406 0.0038712218 0.00043071155 0.0018029673 0.0011130433 -0.0039529502 -0.0042470074 -0.0040320586 0.0022810216 -0.0036511517 -0.0035746945 -0.0040811924 -0.0030462507 -0.0032041627 -8.6435786e-05 0.0049565122 -0.0044714087 0.0042570466 -0.0021087858 -0.002331766 0.0016698026 0.002758595 -0.0006680459 0.0048074625 0.0026733428 0.004230898 0.0012549052 -0.004491386 0.0018782493 0.004990956 0.003319728 0.003532951 0.0015960566 0.0022617872 -0.0047880295 0.004107414 0.0038806961 -0.0028491647 -0.0048668585 -0.00078778673 -0.0012653648 0.0025891217 -0.0010602133 -0.0018920542 0.003716348 0.00280939 0.004501503 -0.004039372 -0.0009637674 0.0011770133 -0.0028216562
iñaki 0.004816307 0.0006922732 -0.0014740457 0.0023471091 -0.003031559 -0.0032630404 0.0007364698 0.0025188064 -0.004416712 0.003475346 -0.0047319783 -0.00017778549 -0.0028258937 -0.0015008284 0.0036238784 0.0035633445 0.0011715859 -0.0046495055 0.0040511806 0.0011520389 -0.00092137436 0.0036271594 0.0017853702 -0.0032047697 -0.0019109284 0.0021854066 -0.00481396 -0.003304951 -0.0032943608 -0.0026787072 -0.0041705444 -0.00047651544 -0.0010526865 -0.0035798403 0.0047009406 6.999522e-05 -0.0024078218 0.001936616 0.0026851692 0.002786851 0.004155661 -0.0014768057 -0.0026226446 -0.004306651 0.0039427467 -0.0015600198 -0.0041983505 -0.0010093595 -0.00056454947 -0.004777993 -0.004068892 0.0039524687 -0.0024149856 -0.0013805868 -0.0038721892 0.000445573 0.003470845 0.0004306967 -0.0012052673 0.00489294 -0.004753238 -0.004891434 -0.00050002 0.0008863419 0.0043425704 0.0020222075 -0.0034264538 0.0039049794 -0.0014534829 -0.001926698 -0.0003498344 -0.004053107 -0.0039945124 -7.165496e-05 -0.003694389 -0.0005263598 -0.0028589852 0.00087976956 -0.004049329 0.0015451477 0.001565795 0.0015096073 -0.00404671 -0.0033193226 0.004751756 0.003388979 -0.00081005995 -0.0011869746 -0.0018779892 -0.0048726033 0.0024656658 -0.0022151067 0.0019650676 0.0028770268 -0.004855958 -0.0043353764 -0.002761521 0.0028276027 -0.004158923 0.00234447
tercera -0.002286802 -0.0034542263 0.0008860357 0.0012348666 0.0029326493 -0.004680533 -0.0037606917 -0.0020408798 0.0017810465 -0.0035291023 0.0044312896 0.0017859207 -0.0036641373 0.0034062793 0.0025180213 0.0033433582 0.004040882 0.0021527545 0.0038728325 8.527322e-05 0.0030414325 -0.004091052 -0.0024424423 0.0028267058 0.004615178 0.0046222433 0.0017923927 0.004957874 -0.0038541793 -0.0019928645 0.0012201357 -0.0034017458 0.0025864686 0.0011570785 0.0028397683 0.0028091525 0.0005335354 0.0020335917 -0.004012879 0.003762789 -0.0021811635 0.0024024383 0.0041775685 -0.000861361 0.0017233446 0.0021243172 -0.0012139883 -0.00045238473 0.0014656741 -0.0004388984 0.0030028555 -0.0022599467 -0.0029654594 -0.004962289 0.0035966544 0.0039170906 0.0030274529 -0.00048801038 -0.0036595021 -0.001190998 0.0016437373 -0.0039253165 0.0025944312 0.001183084 0.001941864 0.00042902972 0.0043029534 0.000740695 0.00094100065 0.0020768559 -0.0037192486 -0.004292866 0.0019478494 0.00023316157 -0.0038403803 -0.0014003721 0.004140676 -0.0018466739 0.0031941982 -0.0022747037 -0.0026979845 0.0016643059 -0.0017935822 0.0044907476 0.001024408 0.0011387068 -0.004531649 -0.0036014603 -0.0025751204 -0.004765799 0.0015737294 -0.0010505053 -0.0015224605 0.0033548041 0.00031155243 0.0026623844 0.0034187606 0.0008766409 -0.0032017464 0.00056952395
nazis 0.0031764007 0.0026786965 -0.0032245154 0.0022835964 -0.0010234276 -0.0015193643 0.0036430606 0.0040062163 0.0018545282 0.0035663696 -0.0013555876 0.0001063363 -0.0029016922 -0.004567025 -0.0029228805 -0.00026845245 -0.0037084317 -0.0018636615 0.0013510522 0.0034874354 -0.0025739009 -0.0025218327 0.0038791518 -0.0025089437 -0.00028162036 0.0017181446 -0.004108484 -0.00178499 -0.0041925567 -0.0028409031 0.004175215 -0.0030499054 -0.00055960915 0.0035287072 -0.0046460256 -0.0021034281 7.1439186e-05 0.0020177749 0.0030036622 -0.004198994 0.0037902223 -0.004292352 0.0028135714 0.0048788707 -0.0029713048 0.0033965386 -0.0017370408 -0.002557149 -0.0033858477 -0.0024359846 -0.001654773 -0.0018406608 -0.0045014434 0.0011515288 -0.0010014611 0.00036788583 0.0005583734 0.0038886927 -4.3874956e-05 -0.0049425685 -0.002158129 0.0040195803 0.0015565896 -0.0038025228 0.0025966067 -0.0024767425 0.0013724265 -0.0038451983 0.0023695724 0.0019487818 0.0032347594 0.0011745286 -0.0037572323 -0.0010853068 0.0021158354 0.0040896176 -0.0046764747 0.0013313724 0.0030199054 0.0019744323 -0.004766399 -0.0045355386 0.001039536 3.1997974e-05 0.0013910687 -0.004770455 0.0029131803 0.0003948225 0.004784585 -0.0049341475 0.0048630065 -0.0023699603 -0.0047318796 0.0041044364 -0.004436392 0.0030662497 -0.002784983 0.0009053693 -0.0049897674 0.0024017396
g -0.0029439705 -0.0017794502 0.0038718116 -0.0035144598 -0.004367117 0.0007956236 -0.0015265578 0.00035325476 0.004767336 -0.0025725553 -0.0028957478 -0.0030154625 -0.0030712432 -0.0043882425 -0.0019406393 0.0026270826 0.0032314088 -0.0035090526 0.002291695 0.0049466887 0.0022475487 0.0024990416 -0.0022880493 0.0035179066 -0.0013003584 -0.0038979664 -0.0017521365 0.0036649182 0.0048230756 0.0010515108 -0.0035981876 -0.0003688611 0.00059421343 -0.0015433179 -0.0008421014 0.0032792105 -0.0035979555 -0.003063912 0.0013659279 0.0025425083 -0.0015410216 -0.003469737 -0.0029606454 7.4475516e-05 -0.00026279653 -0.004171251 1.7660235e-05 -0.0029628368 0.0031379715 -4.756777e-05 0.0043679103 -0.004254498 -0.0046922434 0.002836512 0.0024091871 0.0018700212 -0.003871133 0.0039099557 0.0036489698 -0.004340983 0.0009876953 0.004420729 -0.001395796 0.0023719799 0.0030092206 0.0019024304 0.0015395478 -0.0009946199 -0.0015928271 -0.001199929 -0.003962898 -0.0040411158 0.0031234594 -0.0037077693 0.0012269657 0.0031544568 0.0029575394 -0.0027793865 0.0027884995 -0.0020682795 -0.0016778501 -0.0039675552 -0.0030283378 0.004586911 -0.0026054326 0.0032850546 -0.0019394462 0.0047194045 -0.0016137828 0.00046373205 0.002518829 -0.00029774458 0.0016925519 -0.003656852 0.0032586285 -0.0010384241 -0.0029072345 0.0014223254 -0.002735699 0.0025430387
campos -0.002181123 0.0032261848 -0.0036144631 0.0027402188 0.0046615615 0.0035102991 -0.004303641 -0.004240294 -0.00040429985 -0.0036270677 -0.0017967875 0.0047481223 0.0004519584 -0.0009567467 0.00043446032 -0.004336834 -0.002863782 -0.0020709543 -0.0019583937 -0.002806891 -0.0024968656 0.0028812264 0.0040190085 0.0037829562 -0.0022871208 -0.0019797496 0.0020467425 0.0018702596 -0.0028034984 0.004174812 0.0015731615 -0.0029320375 -0.0023862694 0.0026853196 0.0034585076 -0.004191114 0.0027526214 -0.0018825764 -0.0041908044 -0.0021560662 -0.0014738936 -0.002147719 0.0007497332 -0.0043653417 0.0031305074 -0.0040199873 -0.004717452 -0.0001351361 0.0019063158 0.002936435 0.0028495588 -0.0049491664 -0.0049516526 -0.0038686807 0.0012853062 -0.0042319833 -0.0017491202 0.003273124 0.0023830754 0.00069472095 0.0021051692 0.00056444807 -0.002576285 -0.003177901 0.0022682778 -0.0034181154 -0.0013952618 0.0021280951 -0.0023962478 0.0037515885 0.0023650187 0.0010912265 0.00024919657 0.003970124 -0.0033607245 -0.004075425 0.00033370333 0.002451218 -0.0019512022 -0.004075199 -0.0026591248 0.0019916284 6.4965374e-05 -0.0019990543 -0.00290753 0.0021364754 -0.00052270805 0.0020982067 -0.0033041753 0.0010131167 -0.002570085 -0.0007780334 -0.00261966 -0.0007317969 -0.0032806152 0.0047502145 0.00075075234 -0.004273478 -0.0021723039 0.0019816915
cristina -0.003848554 -0.00080768345 0.004498749 0.0007174952 -0.0023995212 0.002699443 0.002376432 -0.000834076 -0.0022073702 -0.0031068271 0.0011016871 -0.003575573 -0.0035340476 0.0016424285 -0.0019492111 0.0029184364 0.0005038882 -0.0046957247 0.002402032 0.0015978641 -0.003912148 0.0048160343 -0.0047158757 3.7323156e-05 0.0029546935 -0.0029283657 -0.00042811045 -0.004501467 -0.0043052295 -0.0003306278 0.000933038 0.003029098 -0.0030893632 -0.0031722207 0.004433148 0.002663557 -0.004967153 -0.0037452616 0.001128178 -5.1329553e-05 0.0043866187 0.0013668414 -0.00029736443 -0.0033203957 -0.0040418515 -0.0040704887 -0.0019384094 0.0031525502 -0.00042640817 -0.003402693 0.00010435345 -0.003627077 -0.0013459778 0.00081387 -0.002381913 0.0044705174 0.0045563527 -0.0014873251 -0.002627714 -0.0047579412 0.0020268937 0.0040324316 0.0036984677 -0.0043136 -0.00085973716 0.0023754544 0.0028581193 -8.5613814e-05 -0.0020014788 0.0039779968 0.0013546991 0.00047212883 -0.00066703494 -0.0045913034 -0.0047117854 -0.0012213582 0.001894514 -0.0025439558 0.002496872 -0.004359939 0.0023486568 0.0017999642 -0.003462471 -0.0035012888 -0.0025053401 -0.004872107 0.0029306337 0.0028618753 -0.0038948487 0.00054717914 0.004911867 0.001640154 -0.0017600086 0.0035170475 -0.00024817357 -0.004213561 -0.0026422965 -0.0043057846 0.0032664016 0.004399674
good 0.0017678005 -0.0013056182 9.420545e-05 -0.0024980141 0.0019998509 0.0047201235 0.002247487 -0.0010981082 -0.0010784443 -0.0050100377 -0.0028919668 0.0006950321 -0.0045440644 -0.003784067 0.00031501226 -0.00414259 -0.002051594 0.0038312133 -0.0025447994 -0.0019555567 -0.00019590168 -0.0018339544 0.0032946684 -0.0010381065 -0.0028917 0.0031528384 -0.0029997001 -0.00392427 0.0029984182 -0.00175299 0.0004863713 -0.004615678 0.001933511 0.0040113786 0.004460714 -0.004193487 0.0016470783 0.0019263362 -0.0039528217 0.002911096 0.0044702115 0.0037579027 0.0011177765 -0.0025266628 -0.0007048711 -0.00012202624 0.004452721 0.0014567104 0.0018935319 -0.0027057237 0.004570896 0.00095175597 -0.00010891401 0.0021074247 -0.0045522028 -0.0040122387 -0.0014310844 -0.0032714235 0.0012768646 -0.0007118946 0.000771799 0.0042594867 0.00021902502 0.0031130477 0.0018159761 9.951821e-05 0.0027375235 -0.003131828 0.0015077192 -0.000488425 0.0028882662 -0.0002333936 -0.0046268 0.0033885029 -0.0007521197 0.004472459 0.0046909987 0.0037153217 -0.0034971456 0.003277148 0.0035750056 -0.001845445 0.0049164663 0.0029948496 -0.000615455 -0.0018857336 0.0042533632 -0.0021314165 0.0019706388 0.0027212307 -0.0026896526 -0.0034583528 -0.0017441784 0.00011153451 0.0023469778 -0.0036426552 -0.0025266034 -0.00055160304 0.004062235 -0.0016195319
online -0.0004318629 0.0028047222 -0.0044046314 6.070013e-05 0.0005555318 0.004245018 0.0034280147 -0.0018621673 0.0017624053 -0.0015689016 0.004749369 0.0029999006 -0.0024722698 0.0044137836 -0.0022153407 -0.0032355576 0.0001006192 -0.0032109572 0.0039330926 0.0035171758 0.0024320907 -0.0037470206 -0.0043402365 -0.0032920295 -0.0016205709 -0.00028959435 -0.0016498057 -0.003485013 -0.004894923 0.00060297427 -0.0011279787 0.003051644 -0.0022239024 -0.003657833 0.0009107282 -0.002249417 -0.0040677576 0.0040870584 -0.001650637 -0.0044625215 -0.0020250836 0.0013378134 -0.001434045 -0.003369704 -0.000570597 0.0043307147 -0.0017946302 0.0012936027 0.0007683047 -0.0021285175 0.0001099003 -0.00048473998 0.00056209374 0.0021387239 0.0025188401 -0.00068302476 -0.00042484532 0.000437448 0.0005650909 -0.0036076428 0.0006760782 -0.0039359047 0.003860488 -0.004594228 -0.0006679926 -0.0014022705 -0.0025830509 0.0034193057 -0.0043109735 -0.0014679595 -0.0014899806 -0.0027252194 -0.0023913693 -0.00041877152 -0.0001777506 0.0048696133 0.0037745384 -0.0033302312 0.0035291747 0.0009887792 0.0003118089 0.004404544 -0.002136797 -0.0029641737 -0.0023240687 -0.0005226137 -0.0034666602 -0.0019734409 0.003956021 0.0026830416 -0.003102708 -0.0007648484 -0.003558499 0.0038564734 0.0037060939 -0.0017862238 -0.003931111 0.0007416978 -0.0026541902 -0.0046332134
ser 0.00077083905 -0.0041342857 -0.0016502119 0.0010231535 -0.0010475843 -0.002434022 -0.0041073975 0.0049013263 -0.0012002348 0.004321339 -0.0006504546 -0.0016692823 0.0016489319 -3.7120622e-05 -0.0033728033 0.0006005942 -0.0009321301 -0.00206486 -0.0041617407 -0.0023848056 0.0016559327 0.003397148 -0.0042578727 -0.00023309562 -0.004146286 -0.0036854597 -0.003284757 -0.0017383473 -0.0036799922 0.0048142117 0.0017324121 0.00016712783 0.0024110936 -0.0013429404 -0.0011898506 -0.0014891949 0.004356587 0.00091144186 0.0047257226 0.0034574687 0.0037597527 -0.0041249753 0.004229022 0.0027184088 0.00066525553 0.004611735 0.0010416033 -0.0032486338 -0.00076494884 -0.0016375941 -0.0049952543 0.0028542916 -0.00036228498 0.0040976037 -0.00042946098 0.000514619 0.0013581029 -0.0036647003 -0.0046068854 0.0022260349 0.00045847625 -0.0013530573 0.0027804682 0.003317124 -0.00018993611 0.0042693606 0.0038300583 0.0034826975 0.0037028063 -0.0017193691 -0.0016044171 0.002345386 0.0032197433 0.0011243717 -0.0040433803 0.0047330284 0.0047588754 0.003837191 -0.003072406 -0.0047115926 -0.0013134574 -0.0030948496 -0.0020173127 0.0029209156 -0.0045133 -0.0021791046 0.0006101189 -0.0012796543 -0.004270002 0.0018655414 0.002192605 0.003571727 -0.0016135518 -0.0033462388 -0.0022067407 0.0007739983 -0.00037316378 -0.0036455037 -0.0011900808 0.00472869
iríbar -0.0036691385 0.003319234 0.0009836416 0.0035170985 -0.0015201041 0.004564717 0.0013736365 -0.0004928574 -0.0022122457 -0.00073335663 -0.0047850003 -0.0030856722 0.0012586686 0.0007777386 0.0017940036 0.002054219 -0.004490803 0.0040946696 -0.00023220576 0.0021572423 -0.0018757803 0.004876958 -0.0035971599 -0.004525484 -0.0010105697 -0.0018394106 -0.0030218419 -0.001994365 -0.0022801966 0.0019227684 -0.002406355 0.00074881624 -0.0042726137 -0.0028687066 -0.0048615346 0.002803132 -0.0033254693 -0.0004070509 -0.004569295 -0.00023401144 -0.0030737808 0.0015227501 -0.004066015 0.0049386 -0.003928281 0.0045496104 -0.0006937029 -0.0028997203 0.0012106961 -0.00299043 0.005006198 0.00090737885 0.0014198369 0.0020046406 -0.00010924476 0.0027878857 -0.0037419724 0.0008576919 -0.00094817707 -0.0004360415 -0.0020824072 0.00047150374 0.0018204714 0.002049222 0.004610815 -0.0027880715 0.0050019054 -0.004252488 0.004492056 0.003993935 -0.0017924834 0.0024524564 -0.004968852 0.0044562626 0.0017184428 0.0029748268 -0.0003985426 -0.0030671344 0.002859385 0.0047425283 -0.0026136092 0.0026328058 -0.0029995898 0.0039255265 -0.0017157508 -0.0016146244 -0.004684821 -0.0020308057 -0.0014455755 -0.004304871 -0.00487207 0.0025162904 -0.0006321198 0.001403877 0.0015793826 -0.002236634 -0.0032838904 6.038167e-05 0.0021374421 -0.0028847817
vivir 0.0038631698 -0.0018097847 0.0027805683 -0.0013393408 -0.000101033824 0.0015008331 0.0034807061 0.0014488471 0.0010116472 -0.0034042646 -0.0029215517 0.002013995 -0.0017171056 -0.0015274031 0.00086298585 -0.0045830626 -0.0029859815 0.00370298 0.0045852596 0.004723338 0.0030759056 0.0013881174 -0.0037455026 -3.0204996e-05 0.002536205 -0.0008822786 -0.0028841507 0.003754603 -0.0033666787 0.00026825175 0.0015852957 0.003736742 0.0032614577 -0.0012041081 -0.0033457037 0.0036330337 0.0009530451 -0.0028885694 -0.004975222 -0.0046640337 0.0011603514 -0.0023838033 0.0024462172 -0.00042428522 0.0036546662 -0.0026110013 -0.0040828725 -0.0015853468 0.0035003882 -0.0017428915 -0.0014826235 -0.0014369799 -0.0028950698 -0.0010350449 -6.2183775e-05 -0.0005059262 0.0034914613 0.00074569194 0.0017590772 -0.0007245588 -0.003666273 -0.0014044396 -0.002854118 0.004916617 -0.0039106365 0.0037457705 -0.00028312718 0.0013998685 0.00076439395 0.0020212755 0.0038888827 -0.0034339926 0.0048337164 0.003521671 0.0015499581 -0.0020643095 0.00076048693 -0.0022308463 0.0030050243 0.00017216435 -0.00017692121 0.0028758743 0.0022295252 0.0044214306 0.0017126441 0.0012861026 -0.0034548263 0.004288031 -0.0019372405 0.004093173 -0.0047903256 -0.0013383598 -0.0010649826 -0.003711119 -0.0033238074 0.002610416 0.0025914446 0.0044806297 0.0004027447 0.003763542
mesa 0.00092008396 -0.0022694021 -0.0041596005 0.00040299376 0.0023465876 -0.00096164364 -0.0026165033 -0.002149796 -0.000857968 -0.002518856 0.0002583859 -0.003545178 -0.0027913204 0.004923364 -0.0021078119 0.0037595269 -0.0014726032 0.004054769 0.0030676946 -0.0042414 -0.004848138 0.0046230527 -0.0031027189 -0.0032911415 -0.0035215376 0.003422493 -0.0045320005 0.0027959258 0.0011413567 -0.002874203 9.404219e-05 0.0028573314 -0.0021241978 0.0035221817 -0.0013336315 -0.0028426014 0.0008200578 0.004015492 0.0009249086 0.0046584485 0.0026288417 -0.00040792173 0.0032589128 -0.0005235015 -0.00419641 -0.001161578 -0.00064212823 0.0032396193 0.0033313467 -0.0022193135 -0.00048918865 0.0045110765 -0.0001643376 0.00021048887 0.00051080657 0.004116728 0.002755447 0.00050337025 -0.0006988371 -0.003371858 0.002780401 -0.004948966 -0.0026192283 -0.0032537754 0.0016229206 0.0029132862 0.0044220635 -0.0027789334 -0.0029924435 0.0034109897 -0.0046256585 0.00013302368 0.0040535093 0.00030006838 -0.00059728505 0.00236262 -0.0046793385 0.00022180752 0.00039334412 0.001935833 -0.00490246 -0.0030954455 -0.0025016218 0.00041701872 -0.003354328 -0.0017269142 -0.004119605 -0.004333387 0.0014000568 0.004668997 0.0004086518 -0.00044455664 -0.004583516 0.004654664 -0.0014026108 0.0008964542 0.0034697251 0.0035637962 -0.0046099974 -0.0047762506
sofá 0.002978254 0.0041479566 0.0038432009 -0.0013125159 0.0018887079 0.0044275355 -0.0027826023 -0.0030326287 -0.00022224314 -0.0020061927 5.5166616e-05 0.0019380634 -0.00368748 0.0021805314 0.0004363294 0.004276395 -0.00032014053 -0.0029186315 -0.0029861159 -0.004324795 -0.0025231075 0.0023970008 0.003732947 8.235995e-05 0.0011715954 0.00085748645 -0.0036414766 0.00035028026 -0.0023151988 -0.0015820648 0.00020230465 0.00026347025 0.004133622 -0.003442195 -0.0022724278 -0.004541068 0.0012388192 0.0016458271 0.0011941748 0.0041525024 -0.0011981385 0.004806345 0.001204449 -0.003461328 0.0005054447 -0.0029693705 -0.003418673 0.0038667151 -0.0036465276 -0.000639422 0.0014512481 0.0030627141 -0.0031633223 -0.000410514 0.0048406464 -0.0036666647 0.0037890489 -0.0033591553 -0.0020250373 -0.0041393167 0.0017878431 -0.0015255471 0.0008232863 -0.0024264134 0.0022273741 -0.0033833003 -0.0045550154 0.0048549133 0.0009495777 -0.0025996699 -0.0033101751 -0.003712282 -0.0028899086 0.0024730675 0.0010864381 0.001819751 -0.0002645187 -0.00038156303 -0.00345874 0.00022435629 -0.00057356595 0.0049175834 -0.0033174083 0.0036255594 -0.0031848773 0.003404623 -0.0014783315 0.0015670833 -0.002209525 0.0047655795 0.0020465506 0.00035709486 0.0049044024 -0.001804204 0.00090921216 -0.003612235 0.0028868609 -0.000969432 -0.0027002497 0.0019483758
nus -0.0038983682 7.463176e-05 -0.0046860515 0.002517966 -0.0011428229 -0.0044036484 -0.0017052975 0.0008981347 -0.0014270481 0.00034400437 0.0021371215 -0.0029151551 -0.00044039977 -0.0015448137 -0.001962211 0.0033653148 -0.004103297 -0.0026319819 0.003928403 -0.0012910903 0.001457498 0.00467518 -0.003574812 0.004924002 -0.0015189188 -0.0004909793 -0.0033614722 -0.0042461483 -0.0020397597 0.0001557033 0.0025742652 0.0015008696 -0.0017702427 0.0047434634 -0.0017834231 0.0044920915 0.0014430628 -0.00059282564 -0.0023223436 -0.004128764 -0.0022682995 -0.003246909 0.0029230507 -0.0020499306 0.004068443 -0.0034444926 0.003479908 0.0035063983 0.0027235064 0.0013767859 -0.0034276939 0.0011960684 -0.00042722776 0.0008480843 -0.002447907 -0.0021437681 0.00013653228 0.00205831 0.004052869 -0.0013393554 3.0935724e-05 0.0017786882 0.003312585 0.0003392679 0.0013160106 0.0036489777 -0.0040474967 -0.003554177 0.004550306 -0.0037783822 0.00033731354 0.0038083016 0.0001426859 0.0045638275 -0.0009494164 0.0014646332 -0.003065375 0.0039984756 0.0013725035 0.0042289197 -0.0011738259 -0.0030682907 0.003215333 0.00061910105 -0.004044429 -0.0035064362 0.0013148994 -0.0024903454 0.003206774 -0.003665175 0.0015618406 -0.0049743745 -0.0029428082 0.0012334851 0.0013933076 0.0027539125 2.9866665e-06 -0.003352555 0.0022467903 0.0031783136
